digraph Tree {
node [shape=box, style="filled, rounded", color="black", fontname=helvetica] ;
edge [fontname=helvetica] ;
0 [label="column_Acidic_percentage <= 13.29\ngini = 0.27\nsamples = 7427\nvalue = [9876, 1854]\nclass = AMP", fillcolor="#e58139cf"] ;
1 [label="PP3 <= -0.02\ngini = 0.21\nsamples = 6310\nvalue = [8748, 1198]\nclass = AMP", fillcolor="#e58139dc"] ;
0 -> 1 [labeldistance=2.5, labelangle=45, headlabel="True"] ;
2 [label="PP3 <= -0.16\ngini = 0.49\nsamples = 254\nvalue = [237, 175]\nclass = AMP", fillcolor="#e5813943"] ;
1 -> 2 ;
3 [label="PP3 <= -0.18\ngini = 0.34\nsamples = 22\nvalue = [8, 29]\nclass = NAMP", fillcolor="#399de5b9"] ;
2 -> 3 ;
4 [label="column_Acidic_percentage <= 8.01\ngini = 0.44\nsamples = 12\nvalue = [6, 12]\nclass = NAMP", fillcolor="#399de57f"] ;
3 -> 4 ;
5 [label="PP3 <= -0.18\ngini = 0.44\nsamples = 4\nvalue = [4, 2]\nclass = AMP", fillcolor="#e581397f"] ;
4 -> 5 ;
6 [label="gini = 0.0\nsamples = 2\nvalue = [0, 2]\nclass = NAMP", fillcolor="#399de5ff"] ;
5 -> 6 ;
7 [label="gini = 0.0\nsamples = 2\nvalue = [4, 0]\nclass = AMP", fillcolor="#e58139ff"] ;
5 -> 7 ;
8 [label="PP3 <= -0.23\ngini = 0.28\nsamples = 8\nvalue = [2, 10]\nclass = NAMP", fillcolor="#399de5cc"] ;
4 -> 8 ;
9 [label="column_Acidic_percentage <= 9.55\ngini = 0.41\nsamples = 5\nvalue = [2, 5]\nclass = NAMP", fillcolor="#399de599"] ;
8 -> 9 ;
10 [label="gini = 0.44\nsamples = 2\nvalue = [1, 2]\nclass = NAMP", fillcolor="#399de57f"] ;
9 -> 10 ;
11 [label="gini = 0.38\nsamples = 3\nvalue = [1, 3]\nclass = NAMP", fillcolor="#399de5aa"] ;
9 -> 11 ;
12 [label="gini = 0.0\nsamples = 3\nvalue = [0, 5]\nclass = NAMP", fillcolor="#399de5ff"] ;
8 -> 12 ;
13 [label="column_Acidic_percentage <= 8.33\ngini = 0.19\nsamples = 10\nvalue = [2, 17]\nclass = NAMP", fillcolor="#399de5e1"] ;
3 -> 13 ;
14 [label="gini = 0.0\nsamples = 3\nvalue = [0, 7]\nclass = NAMP", fillcolor="#399de5ff"] ;
13 -> 14 ;
15 [label="column_Acidic_percentage <= 11.25\ngini = 0.28\nsamples = 7\nvalue = [2, 10]\nclass = NAMP", fillcolor="#399de5cc"] ;
13 -> 15 ;
16 [label="PP3 <= -0.17\ngini = 0.3\nsamples = 6\nvalue = [2, 9]\nclass = NAMP", fillcolor="#399de5c6"] ;
15 -> 16 ;
17 [label="gini = 0.32\nsamples = 3\nvalue = [1, 4]\nclass = NAMP", fillcolor="#399de5bf"] ;
16 -> 17 ;
18 [label="gini = 0.28\nsamples = 3\nvalue = [1, 5]\nclass = NAMP", fillcolor="#399de5cc"] ;
16 -> 18 ;
19 [label="gini = 0.0\nsamples = 1\nvalue = [0, 1]\nclass = NAMP", fillcolor="#399de5ff"] ;
15 -> 19 ;
20 [label="column_Acidic_percentage <= 1.43\ngini = 0.48\nsamples = 232\nvalue = [229, 146]\nclass = AMP", fillcolor="#e581395c"] ;
2 -> 20 ;
21 [label="PP3 <= -0.04\ngini = 0.04\nsamples = 85\nvalue = [135, 3]\nclass = AMP", fillcolor="#e58139f9"] ;
20 -> 21 ;
22 [label="PP3 <= -0.04\ngini = 0.07\nsamples = 57\nvalue = [84, 3]\nclass = AMP", fillcolor="#e58139f6"] ;
21 -> 22 ;
23 [label="PP3 <= -0.08\ngini = 0.05\nsamples = 56\nvalue = [84, 2]\nclass = AMP", fillcolor="#e58139f9"] ;
22 -> 23 ;
24 [label="PP3 <= -0.08\ngini = 0.08\nsamples = 33\nvalue = [49, 2]\nclass = AMP", fillcolor="#e58139f5"] ;
23 -> 24 ;
25 [label="PP3 <= -0.12\ngini = 0.04\nsamples = 32\nvalue = [49, 1]\nclass = AMP", fillcolor="#e58139fa"] ;
24 -> 25 ;
26 [label="PP3 <= -0.13\ngini = 0.09\nsamples = 14\nvalue = [20, 1]\nclass = AMP", fillcolor="#e58139f2"] ;
25 -> 26 ;
27 [label="gini = 0.0\nsamples = 13\nvalue = [20, 0]\nclass = AMP", fillcolor="#e58139ff"] ;
26 -> 27 ;
28 [label="gini = 0.0\nsamples = 1\nvalue = [0, 1]\nclass = NAMP", fillcolor="#399de5ff"] ;
26 -> 28 ;
29 [label="gini = 0.0\nsamples = 18\nvalue = [29, 0]\nclass = AMP", fillcolor="#e58139ff"] ;
25 -> 29 ;
30 [label="gini = 0.0\nsamples = 1\nvalue = [0, 1]\nclass = NAMP", fillcolor="#399de5ff"] ;
24 -> 30 ;
31 [label="gini = 0.0\nsamples = 23\nvalue = [35, 0]\nclass = AMP", fillcolor="#e58139ff"] ;
23 -> 31 ;
32 [label="gini = 0.0\nsamples = 1\nvalue = [0, 1]\nclass = NAMP", fillcolor="#399de5ff"] ;
22 -> 32 ;
33 [label="gini = 0.0\nsamples = 28\nvalue = [51, 0]\nclass = AMP", fillcolor="#e58139ff"] ;
21 -> 33 ;
34 [label="column_Acidic_percentage <= 6.9\ngini = 0.48\nsamples = 147\nvalue = [94, 143]\nclass = NAMP", fillcolor="#399de557"] ;
20 -> 34 ;
35 [label="PP3 <= -0.08\ngini = 0.33\nsamples = 54\nvalue = [19, 72]\nclass = NAMP", fillcolor="#399de5bc"] ;
34 -> 35 ;
36 [label="PP3 <= -0.09\ngini = 0.44\nsamples = 26\nvalue = [16, 32]\nclass = NAMP", fillcolor="#399de57f"] ;
35 -> 36 ;
37 [label="column_Acidic_percentage <= 4.88\ngini = 0.26\nsamples = 13\nvalue = [4, 22]\nclass = NAMP", fillcolor="#399de5d1"] ;
36 -> 37 ;
38 [label="gini = 0.0\nsamples = 2\nvalue = [0, 5]\nclass = NAMP", fillcolor="#399de5ff"] ;
37 -> 38 ;
39 [label="column_Acidic_percentage <= 5.83\ngini = 0.31\nsamples = 11\nvalue = [4, 17]\nclass = NAMP", fillcolor="#399de5c3"] ;
37 -> 39 ;
40 [label="PP3 <= -0.1\ngini = 0.4\nsamples = 6\nvalue = [3, 8]\nclass = NAMP", fillcolor="#399de59f"] ;
39 -> 40 ;
41 [label="gini = 0.0\nsamples = 3\nvalue = [0, 5]\nclass = NAMP", fillcolor="#399de5ff"] ;
40 -> 41 ;
42 [label="gini = 0.5\nsamples = 3\nvalue = [3, 3]\nclass = AMP", fillcolor="#e5813900"] ;
40 -> 42 ;
43 [label="PP3 <= -0.12\ngini = 0.18\nsamples = 5\nvalue = [1, 9]\nclass = NAMP", fillcolor="#399de5e3"] ;
39 -> 43 ;
44 [label="gini = 0.44\nsamples = 3\nvalue = [1, 2]\nclass = NAMP", fillcolor="#399de57f"] ;
43 -> 44 ;
45 [label="gini = 0.0\nsamples = 2\nvalue = [0, 7]\nclass = NAMP", fillcolor="#399de5ff"] ;
43 -> 45 ;
46 [label="PP3 <= -0.09\ngini = 0.5\nsamples = 13\nvalue = [12, 10]\nclass = AMP", fillcolor="#e581392a"] ;
36 -> 46 ;
47 [label="PP3 <= -0.09\ngini = 0.22\nsamples = 3\nvalue = [7, 1]\nclass = AMP", fillcolor="#e58139db"] ;
46 -> 47 ;
48 [label="gini = 0.44\nsamples = 2\nvalue = [2, 1]\nclass = AMP", fillcolor="#e581397f"] ;
47 -> 48 ;
49 [label="gini = 0.0\nsamples = 1\nvalue = [5, 0]\nclass = AMP", fillcolor="#e58139ff"] ;
47 -> 49 ;
50 [label="PP3 <= -0.08\ngini = 0.46\nsamples = 10\nvalue = [5, 9]\nclass = NAMP", fillcolor="#399de571"] ;
46 -> 50 ;
51 [label="column_Acidic_percentage <= 5.28\ngini = 0.22\nsamples = 6\nvalue = [1, 7]\nclass = NAMP", fillcolor="#399de5db"] ;
50 -> 51 ;
52 [label="PP3 <= -0.09\ngini = 0.24\nsamples = 5\nvalue = [1, 6]\nclass = NAMP", fillcolor="#399de5d4"] ;
51 -> 52 ;
53 [label="gini = 0.38\nsamples = 3\nvalue = [1, 3]\nclass = NAMP", fillcolor="#399de5aa"] ;
52 -> 53 ;
54 [label="gini = 0.0\nsamples = 2\nvalue = [0, 3]\nclass = NAMP", fillcolor="#399de5ff"] ;
52 -> 54 ;
55 [label="gini = 0.0\nsamples = 1\nvalue = [0, 1]\nclass = NAMP", fillcolor="#399de5ff"] ;
51 -> 55 ;
56 [label="gini = 0.44\nsamples = 4\nvalue = [4, 2]\nclass = AMP", fillcolor="#e581397f"] ;
50 -> 56 ;
57 [label="PP3 <= -0.03\ngini = 0.13\nsamples = 28\nvalue = [3, 40]\nclass = NAMP", fillcolor="#399de5ec"] ;
35 -> 57 ;
58 [label="column_Acidic_percentage <= 2.9\ngini = 0.19\nsamples = 21\nvalue = [3, 26]\nclass = NAMP", fillcolor="#399de5e2"] ;
57 -> 58 ;
59 [label="PP3 <= -0.05\ngini = 0.5\nsamples = 2\nvalue = [1, 1]\nclass = AMP", fillcolor="#e5813900"] ;
58 -> 59 ;
60 [label="gini = 0.0\nsamples = 1\nvalue = [0, 1]\nclass = NAMP", fillcolor="#399de5ff"] ;
59 -> 60 ;
61 [label="gini = 0.0\nsamples = 1\nvalue = [1, 0]\nclass = AMP", fillcolor="#e58139ff"] ;
59 -> 61 ;
62 [label="PP3 <= -0.05\ngini = 0.14\nsamples = 19\nvalue = [2, 25]\nclass = NAMP", fillcolor="#399de5eb"] ;
58 -> 62 ;
63 [label="column_Acidic_percentage <= 6.19\ngini = 0.24\nsamples = 11\nvalue = [2, 12]\nclass = NAMP", fillcolor="#399de5d4"] ;
62 -> 63 ;
64 [label="PP3 <= -0.06\ngini = 0.2\nsamples = 7\nvalue = [1, 8]\nclass = NAMP", fillcolor="#399de5df"] ;
63 -> 64 ;
65 [label="gini = 0.0\nsamples = 4\nvalue = [0, 6]\nclass = NAMP", fillcolor="#399de5ff"] ;
64 -> 65 ;
66 [label="gini = 0.44\nsamples = 3\nvalue = [1, 2]\nclass = NAMP", fillcolor="#399de57f"] ;
64 -> 66 ;
67 [label="PP3 <= -0.06\ngini = 0.32\nsamples = 4\nvalue = [1, 4]\nclass = NAMP", fillcolor="#399de5bf"] ;
63 -> 67 ;
68 [label="gini = 0.0\nsamples = 1\nvalue = [0, 1]\nclass = NAMP", fillcolor="#399de5ff"] ;
67 -> 68 ;
69 [label="PP3 <= -0.06\ngini = 0.38\nsamples = 3\nvalue = [1, 3]\nclass = NAMP", fillcolor="#399de5aa"] ;
67 -> 69 ;
70 [label="gini = 0.44\nsamples = 2\nvalue = [1, 2]\nclass = NAMP", fillcolor="#399de57f"] ;
69 -> 70 ;
71 [label="gini = 0.0\nsamples = 1\nvalue = [0, 1]\nclass = NAMP", fillcolor="#399de5ff"] ;
69 -> 71 ;
72 [label="gini = 0.0\nsamples = 8\nvalue = [0, 13]\nclass = NAMP", fillcolor="#399de5ff"] ;
62 -> 72 ;
73 [label="gini = 0.0\nsamples = 7\nvalue = [0, 14]\nclass = NAMP", fillcolor="#399de5ff"] ;
57 -> 73 ;
74 [label="column_Acidic_percentage <= 13.13\ngini = 0.5\nsamples = 93\nvalue = [75, 71]\nclass = AMP", fillcolor="#e581390e"] ;
34 -> 74 ;
75 [label="column_Acidic_percentage <= 12.68\ngini = 0.5\nsamples = 90\nvalue = [74, 67]\nclass = AMP", fillcolor="#e5813918"] ;
74 -> 75 ;
76 [label="PP3 <= -0.09\ngini = 0.5\nsamples = 87\nvalue = [69, 67]\nclass = AMP", fillcolor="#e5813907"] ;
75 -> 76 ;
77 [label="PP3 <= -0.1\ngini = 0.44\nsamples = 31\nvalue = [15, 30]\nclass = NAMP", fillcolor="#399de57f"] ;
76 -> 77 ;
78 [label="PP3 <= -0.13\ngini = 0.48\nsamples = 25\nvalue = [14, 21]\nclass = NAMP", fillcolor="#399de555"] ;
77 -> 78 ;
79 [label="PP3 <= -0.15\ngini = 0.38\nsamples = 15\nvalue = [5, 15]\nclass = NAMP", fillcolor="#399de5aa"] ;
78 -> 79 ;
80 [label="column_Acidic_percentage <= 11.25\ngini = 0.5\nsamples = 6\nvalue = [4, 4]\nclass = AMP", fillcolor="#e5813900"] ;
79 -> 80 ;
81 [label="PP3 <= -0.15\ngini = 0.32\nsamples = 4\nvalue = [1, 4]\nclass = NAMP", fillcolor="#399de5bf"] ;
80 -> 81 ;
82 [label="gini = 0.0\nsamples = 1\nvalue = [0, 1]\nclass = NAMP", fillcolor="#399de5ff"] ;
81 -> 82 ;
83 [label="gini = 0.38\nsamples = 3\nvalue = [1, 3]\nclass = NAMP", fillcolor="#399de5aa"] ;
81 -> 83 ;
84 [label="gini = 0.0\nsamples = 2\nvalue = [3, 0]\nclass = AMP", fillcolor="#e58139ff"] ;
80 -> 84 ;
85 [label="PP3 <= -0.14\ngini = 0.15\nsamples = 9\nvalue = [1, 11]\nclass = NAMP", fillcolor="#399de5e8"] ;
79 -> 85 ;
86 [label="column_Acidic_percentage <= 8.85\ngini = 0.38\nsamples = 4\nvalue = [1, 3]\nclass = NAMP", fillcolor="#399de5aa"] ;
85 -> 86 ;
87 [label="gini = 0.0\nsamples = 2\nvalue = [0, 2]\nclass = NAMP", fillcolor="#399de5ff"] ;
86 -> 87 ;
88 [label="gini = 0.5\nsamples = 2\nvalue = [1, 1]\nclass = AMP", fillcolor="#e5813900"] ;
86 -> 88 ;
89 [label="gini = 0.0\nsamples = 5\nvalue = [0, 8]\nclass = NAMP", fillcolor="#399de5ff"] ;
85 -> 89 ;
90 [label="PP3 <= -0.12\ngini = 0.48\nsamples = 10\nvalue = [9, 6]\nclass = AMP", fillcolor="#e5813955"] ;
78 -> 90 ;
91 [label="PP3 <= -0.13\ngini = 0.24\nsamples = 4\nvalue = [6, 1]\nclass = AMP", fillcolor="#e58139d4"] ;
90 -> 91 ;
92 [label="PP3 <= -0.13\ngini = 0.32\nsamples = 3\nvalue = [4, 1]\nclass = AMP", fillcolor="#e58139bf"] ;
91 -> 92 ;
93 [label="gini = 0.0\nsamples = 1\nvalue = [1, 0]\nclass = AMP", fillcolor="#e58139ff"] ;
92 -> 93 ;
94 [label="gini = 0.38\nsamples = 2\nvalue = [3, 1]\nclass = AMP", fillcolor="#e58139aa"] ;
92 -> 94 ;
95 [label="gini = 0.0\nsamples = 1\nvalue = [2, 0]\nclass = AMP", fillcolor="#e58139ff"] ;
91 -> 95 ;
96 [label="column_Acidic_percentage <= 9.05\ngini = 0.47\nsamples = 6\nvalue = [3, 5]\nclass = NAMP", fillcolor="#399de566"] ;
90 -> 96 ;
97 [label="gini = 0.0\nsamples = 1\nvalue = [0, 1]\nclass = NAMP", fillcolor="#399de5ff"] ;
96 -> 97 ;
98 [label="PP3 <= -0.11\ngini = 0.49\nsamples = 5\nvalue = [3, 4]\nclass = NAMP", fillcolor="#399de540"] ;
96 -> 98 ;
99 [label="PP3 <= -0.12\ngini = 0.44\nsamples = 4\nvalue = [2, 4]\nclass = NAMP", fillcolor="#399de57f"] ;
98 -> 99 ;
100 [label="gini = 0.0\nsamples = 1\nvalue = [0, 1]\nclass = NAMP", fillcolor="#399de5ff"] ;
99 -> 100 ;
101 [label="gini = 0.48\nsamples = 3\nvalue = [2, 3]\nclass = NAMP", fillcolor="#399de555"] ;
99 -> 101 ;
102 [label="gini = 0.0\nsamples = 1\nvalue = [1, 0]\nclass = AMP", fillcolor="#e58139ff"] ;
98 -> 102 ;
103 [label="PP3 <= -0.1\ngini = 0.18\nsamples = 6\nvalue = [1, 9]\nclass = NAMP", fillcolor="#399de5e3"] ;
77 -> 103 ;
104 [label="column_Acidic_percentage <= 9.56\ngini = 0.28\nsamples = 4\nvalue = [1, 5]\nclass = NAMP", fillcolor="#399de5cc"] ;
103 -> 104 ;
105 [label="gini = 0.0\nsamples = 1\nvalue = [0, 1]\nclass = NAMP", fillcolor="#399de5ff"] ;
104 -> 105 ;
106 [label="gini = 0.32\nsamples = 3\nvalue = [1, 4]\nclass = NAMP", fillcolor="#399de5bf"] ;
104 -> 106 ;
107 [label="gini = 0.0\nsamples = 2\nvalue = [0, 4]\nclass = NAMP", fillcolor="#399de5ff"] ;
103 -> 107 ;
108 [label="column_Acidic_percentage <= 12.25\ngini = 0.48\nsamples = 56\nvalue = [54, 37]\nclass = AMP", fillcolor="#e5813950"] ;
76 -> 108 ;
109 [label="column_Acidic_percentage <= 10.96\ngini = 0.47\nsamples = 52\nvalue = [53, 32]\nclass = AMP", fillcolor="#e5813965"] ;
108 -> 109 ;
110 [label="PP3 <= -0.03\ngini = 0.49\nsamples = 34\nvalue = [30, 24]\nclass = AMP", fillcolor="#e5813933"] ;
109 -> 110 ;
111 [label="column_Acidic_percentage <= 9.76\ngini = 0.34\nsamples = 19\nvalue = [25, 7]\nclass = AMP", fillcolor="#e58139b8"] ;
110 -> 111 ;
112 [label="column_Acidic_percentage <= 7.95\ngini = 0.09\nsamples = 13\nvalue = [19, 1]\nclass = AMP", fillcolor="#e58139f2"] ;
111 -> 112 ;
113 [label="column_Acidic_percentage <= 7.79\ngini = 0.28\nsamples = 5\nvalue = [5, 1]\nclass = AMP", fillcolor="#e58139cc"] ;
112 -> 113 ;
114 [label="gini = 0.0\nsamples = 4\nvalue = [5, 0]\nclass = AMP", fillcolor="#e58139ff"] ;
113 -> 114 ;
115 [label="gini = 0.0\nsamples = 1\nvalue = [0, 1]\nclass = NAMP", fillcolor="#399de5ff"] ;
113 -> 115 ;
116 [label="gini = 0.0\nsamples = 8\nvalue = [14, 0]\nclass = AMP", fillcolor="#e58139ff"] ;
112 -> 116 ;
117 [label="PP3 <= -0.08\ngini = 0.5\nsamples = 6\nvalue = [6, 6]\nclass = AMP", fillcolor="#e5813900"] ;
111 -> 117 ;
118 [label="gini = 0.0\nsamples = 1\nvalue = [3, 0]\nclass = AMP", fillcolor="#e58139ff"] ;
117 -> 118 ;
119 [label="column_Acidic_percentage <= 10.26\ngini = 0.44\nsamples = 5\nvalue = [3, 6]\nclass = NAMP", fillcolor="#399de57f"] ;
117 -> 119 ;
120 [label="PP3 <= -0.05\ngini = 0.47\nsamples = 4\nvalue = [3, 5]\nclass = NAMP", fillcolor="#399de566"] ;
119 -> 120 ;
121 [label="gini = 0.0\nsamples = 3\nvalue = [0, 5]\nclass = NAMP", fillcolor="#399de5ff"] ;
120 -> 121 ;
122 [label="gini = 0.0\nsamples = 1\nvalue = [3, 0]\nclass = AMP", fillcolor="#e58139ff"] ;
120 -> 122 ;
123 [label="gini = 0.0\nsamples = 1\nvalue = [0, 1]\nclass = NAMP", fillcolor="#399de5ff"] ;
119 -> 123 ;
124 [label="column_Acidic_percentage <= 7.9\ngini = 0.35\nsamples = 15\nvalue = [5, 17]\nclass = NAMP", fillcolor="#399de5b4"] ;
110 -> 124 ;
125 [label="column_Acidic_percentage <= 7.42\ngini = 0.49\nsamples = 4\nvalue = [3, 4]\nclass = NAMP", fillcolor="#399de540"] ;
124 -> 125 ;
126 [label="gini = 0.0\nsamples = 1\nvalue = [0, 2]\nclass = NAMP", fillcolor="#399de5ff"] ;
125 -> 126 ;
127 [label="PP3 <= -0.03\ngini = 0.48\nsamples = 3\nvalue = [3, 2]\nclass = AMP", fillcolor="#e5813955"] ;
125 -> 127 ;
128 [label="gini = 0.0\nsamples = 1\nvalue = [0, 1]\nclass = NAMP", fillcolor="#399de5ff"] ;
127 -> 128 ;
129 [label="PP3 <= -0.02\ngini = 0.38\nsamples = 2\nvalue = [3, 1]\nclass = AMP", fillcolor="#e58139aa"] ;
127 -> 129 ;
130 [label="gini = 0.0\nsamples = 1\nvalue = [3, 0]\nclass = AMP", fillcolor="#e58139ff"] ;
129 -> 130 ;
131 [label="gini = 0.0\nsamples = 1\nvalue = [0, 1]\nclass = NAMP", fillcolor="#399de5ff"] ;
129 -> 131 ;
132 [label="column_Acidic_percentage <= 9.84\ngini = 0.23\nsamples = 11\nvalue = [2, 13]\nclass = NAMP", fillcolor="#399de5d8"] ;
124 -> 132 ;
133 [label="gini = 0.0\nsamples = 4\nvalue = [0, 6]\nclass = NAMP", fillcolor="#399de5ff"] ;
132 -> 133 ;
134 [label="PP3 <= -0.03\ngini = 0.35\nsamples = 7\nvalue = [2, 7]\nclass = NAMP", fillcolor="#399de5b6"] ;
132 -> 134 ;
135 [label="gini = 0.0\nsamples = 1\nvalue = [2, 0]\nclass = AMP", fillcolor="#e58139ff"] ;
134 -> 135 ;
136 [label="gini = 0.0\nsamples = 6\nvalue = [0, 7]\nclass = NAMP", fillcolor="#399de5ff"] ;
134 -> 136 ;
137 [label="column_Acidic_percentage <= 11.88\ngini = 0.38\nsamples = 18\nvalue = [23, 8]\nclass = AMP", fillcolor="#e58139a6"] ;
109 -> 137 ;
138 [label="PP3 <= -0.05\ngini = 0.37\nsamples = 16\nvalue = [22, 7]\nclass = AMP", fillcolor="#e58139ae"] ;
137 -> 138 ;
139 [label="column_Acidic_percentage <= 11.24\ngini = 0.28\nsamples = 4\nvalue = [1, 5]\nclass = NAMP", fillcolor="#399de5cc"] ;
138 -> 139 ;
140 [label="gini = 0.0\nsamples = 3\nvalue = [0, 5]\nclass = NAMP", fillcolor="#399de5ff"] ;
139 -> 140 ;
141 [label="gini = 0.0\nsamples = 1\nvalue = [1, 0]\nclass = AMP", fillcolor="#e58139ff"] ;
139 -> 141 ;
142 [label="column_Acidic_percentage <= 11.53\ngini = 0.16\nsamples = 12\nvalue = [21, 2]\nclass = AMP", fillcolor="#e58139e7"] ;
138 -> 142 ;
143 [label="PP3 <= -0.05\ngini = 0.11\nsamples = 8\nvalue = [16, 1]\nclass = AMP", fillcolor="#e58139ef"] ;
142 -> 143 ;
144 [label="PP3 <= -0.05\ngini = 0.28\nsamples = 3\nvalue = [5, 1]\nclass = AMP", fillcolor="#e58139cc"] ;
143 -> 144 ;
145 [label="gini = 0.0\nsamples = 2\nvalue = [5, 0]\nclass = AMP", fillcolor="#e58139ff"] ;
144 -> 145 ;
146 [label="gini = 0.0\nsamples = 1\nvalue = [0, 1]\nclass = NAMP", fillcolor="#399de5ff"] ;
144 -> 146 ;
147 [label="gini = 0.0\nsamples = 5\nvalue = [11, 0]\nclass = AMP", fillcolor="#e58139ff"] ;
143 -> 147 ;
148 [label="PP3 <= -0.03\ngini = 0.28\nsamples = 4\nvalue = [5, 1]\nclass = AMP", fillcolor="#e58139cc"] ;
142 -> 148 ;
149 [label="gini = 0.0\nsamples = 3\nvalue = [5, 0]\nclass = AMP", fillcolor="#e58139ff"] ;
148 -> 149 ;
150 [label="gini = 0.0\nsamples = 1\nvalue = [0, 1]\nclass = NAMP", fillcolor="#399de5ff"] ;
148 -> 150 ;
151 [label="PP3 <= -0.04\ngini = 0.5\nsamples = 2\nvalue = [1, 1]\nclass = AMP", fillcolor="#e5813900"] ;
137 -> 151 ;
152 [label="gini = 0.0\nsamples = 1\nvalue = [0, 1]\nclass = NAMP", fillcolor="#399de5ff"] ;
151 -> 152 ;
153 [label="gini = 0.0\nsamples = 1\nvalue = [1, 0]\nclass = AMP", fillcolor="#e58139ff"] ;
151 -> 153 ;
154 [label="PP3 <= -0.03\ngini = 0.28\nsamples = 4\nvalue = [1, 5]\nclass = NAMP", fillcolor="#399de5cc"] ;
108 -> 154 ;
155 [label="gini = 0.0\nsamples = 3\nvalue = [0, 5]\nclass = NAMP", fillcolor="#399de5ff"] ;
154 -> 155 ;
156 [label="gini = 0.0\nsamples = 1\nvalue = [1, 0]\nclass = AMP", fillcolor="#e58139ff"] ;
154 -> 156 ;
157 [label="gini = 0.0\nsamples = 3\nvalue = [5, 0]\nclass = AMP", fillcolor="#e58139ff"] ;
75 -> 157 ;
158 [label="gini = 0.32\nsamples = 3\nvalue = [1, 4]\nclass = NAMP", fillcolor="#399de5bf"] ;
74 -> 158 ;
159 [label="column_Acidic_percentage <= 0.38\ngini = 0.19\nsamples = 6056\nvalue = [8511, 1023]\nclass = AMP", fillcolor="#e58139e0"] ;
1 -> 159 ;
160 [label="PP3 <= 0.63\ngini = 0.24\nsamples = 2076\nvalue = [2834, 463]\nclass = AMP", fillcolor="#e58139d5"] ;
159 -> 160 ;
161 [label="PP3 <= 0.38\ngini = 0.23\nsamples = 2049\nvalue = [2818, 433]\nclass = AMP", fillcolor="#e58139d8"] ;
160 -> 161 ;
162 [label="PP3 <= 0.22\ngini = 0.22\nsamples = 1877\nvalue = [2596, 365]\nclass = AMP", fillcolor="#e58139db"] ;
161 -> 162 ;
163 [label="PP3 <= 0.08\ngini = 0.19\nsamples = 1098\nvalue = [1552, 187]\nclass = AMP", fillcolor="#e58139e0"] ;
162 -> 163 ;
164 [label="PP3 <= 0.08\ngini = 0.26\nsamples = 320\nvalue = [426, 79]\nclass = AMP", fillcolor="#e58139d0"] ;
163 -> 164 ;
165 [label="PP3 <= -0.02\ngini = 0.25\nsamples = 317\nvalue = [426, 74]\nclass = AMP", fillcolor="#e58139d3"] ;
164 -> 165 ;
166 [label="gini = 0.0\nsamples = 6\nvalue = [12, 0]\nclass = AMP", fillcolor="#e58139ff"] ;
165 -> 166 ;
167 [label="PP3 <= -0.01\ngini = 0.26\nsamples = 311\nvalue = [414, 74]\nclass = AMP", fillcolor="#e58139d1"] ;
165 -> 167 ;
168 [label="PP3 <= -0.02\ngini = 0.32\nsamples = 4\nvalue = [1, 4]\nclass = NAMP", fillcolor="#399de5bf"] ;
167 -> 168 ;
169 [label="gini = 0.44\nsamples = 2\nvalue = [1, 2]\nclass = NAMP", fillcolor="#399de57f"] ;
168 -> 169 ;
170 [label="gini = 0.0\nsamples = 2\nvalue = [0, 2]\nclass = NAMP", fillcolor="#399de5ff"] ;
168 -> 170 ;
171 [label="PP3 <= 0.07\ngini = 0.25\nsamples = 307\nvalue = [413, 70]\nclass = AMP", fillcolor="#e58139d4"] ;
167 -> 171 ;
172 [label="PP3 <= 0.07\ngini = 0.24\nsamples = 283\nvalue = [382, 61]\nclass = AMP", fillcolor="#e58139d6"] ;
171 -> 172 ;
173 [label="PP3 <= 0.07\ngini = 0.25\nsamples = 260\nvalue = [345, 60]\nclass = AMP", fillcolor="#e58139d3"] ;
172 -> 173 ;
174 [label="PP3 <= 0.04\ngini = 0.24\nsamples = 256\nvalue = [342, 57]\nclass = AMP", fillcolor="#e58139d4"] ;
173 -> 174 ;
175 [label="PP3 <= 0.03\ngini = 0.22\nsamples = 181\nvalue = [247, 36]\nclass = AMP", fillcolor="#e58139da"] ;
174 -> 175 ;
176 [label="PP3 <= 0.03\ngini = 0.27\nsamples = 111\nvalue = [143, 28]\nclass = AMP", fillcolor="#e58139cd"] ;
175 -> 176 ;
177 [label="PP3 <= 0.01\ngini = 0.25\nsamples = 109\nvalue = [142, 25]\nclass = AMP", fillcolor="#e58139d2"] ;
176 -> 177 ;
178 [label="PP3 <= -0.0\ngini = 0.2\nsamples = 75\nvalue = [102, 13]\nclass = AMP", fillcolor="#e58139de"] ;
177 -> 178 ;
179 [label="PP3 <= -0.0\ngini = 0.31\nsamples = 22\nvalue = [30, 7]\nclass = AMP", fillcolor="#e58139c4"] ;
178 -> 179 ;
180 [label="PP3 <= -0.01\ngini = 0.17\nsamples = 19\nvalue = [28, 3]\nclass = AMP", fillcolor="#e58139e4"] ;
179 -> 180 ;
181 [label="PP3 <= -0.01\ngini = 0.09\nsamples = 15\nvalue = [21, 1]\nclass = AMP", fillcolor="#e58139f3"] ;
180 -> 181 ;
182 [label="PP3 <= -0.01\ngini = 0.28\nsamples = 4\nvalue = [5, 1]\nclass = AMP", fillcolor="#e58139cc"] ;
181 -> 182 ;
183 [label="gini = 0.0\nsamples = 2\nvalue = [3, 0]\nclass = AMP", fillcolor="#e58139ff"] ;
182 -> 183 ;
184 [label="gini = 0.44\nsamples = 2\nvalue = [2, 1]\nclass = AMP", fillcolor="#e581397f"] ;
182 -> 184 ;
185 [label="gini = 0.0\nsamples = 11\nvalue = [16, 0]\nclass = AMP", fillcolor="#e58139ff"] ;
181 -> 185 ;
186 [label="PP3 <= -0.01\ngini = 0.35\nsamples = 4\nvalue = [7, 2]\nclass = AMP", fillcolor="#e58139b6"] ;
180 -> 186 ;
187 [label="gini = 0.0\nsamples = 1\nvalue = [0, 2]\nclass = NAMP", fillcolor="#399de5ff"] ;
186 -> 187 ;
188 [label="gini = 0.0\nsamples = 3\nvalue = [7, 0]\nclass = AMP", fillcolor="#e58139ff"] ;
186 -> 188 ;
189 [label="PP3 <= -0.0\ngini = 0.44\nsamples = 3\nvalue = [2, 4]\nclass = NAMP", fillcolor="#399de57f"] ;
179 -> 189 ;
190 [label="gini = 0.48\nsamples = 2\nvalue = [2, 3]\nclass = NAMP", fillcolor="#399de555"] ;
189 -> 190 ;
191 [label="gini = 0.0\nsamples = 1\nvalue = [0, 1]\nclass = NAMP", fillcolor="#399de5ff"] ;
189 -> 191 ;
192 [label="PP3 <= 0.0\ngini = 0.14\nsamples = 53\nvalue = [72, 6]\nclass = AMP", fillcolor="#e58139ea"] ;
178 -> 192 ;
193 [label="PP3 <= 0.0\ngini = 0.1\nsamples = 39\nvalue = [52, 3]\nclass = AMP", fillcolor="#e58139f0"] ;
192 -> 193 ;
194 [label="PP3 <= -0.0\ngini = 0.11\nsamples = 36\nvalue = [48, 3]\nclass = AMP", fillcolor="#e58139ef"] ;
193 -> 194 ;
195 [label="gini = 0.0\nsamples = 1\nvalue = [2, 0]\nclass = AMP", fillcolor="#e58139ff"] ;
194 -> 195 ;
196 [label="gini = 0.11\nsamples = 35\nvalue = [46, 3]\nclass = AMP", fillcolor="#e58139ee"] ;
194 -> 196 ;
197 [label="gini = 0.0\nsamples = 3\nvalue = [4, 0]\nclass = AMP", fillcolor="#e58139ff"] ;
193 -> 197 ;
198 [label="PP3 <= 0.0\ngini = 0.23\nsamples = 14\nvalue = [20, 3]\nclass = AMP", fillcolor="#e58139d9"] ;
192 -> 198 ;
199 [label="gini = 0.0\nsamples = 1\nvalue = [0, 1]\nclass = NAMP", fillcolor="#399de5ff"] ;
198 -> 199 ;
200 [label="PP3 <= 0.01\ngini = 0.17\nsamples = 13\nvalue = [20, 2]\nclass = AMP", fillcolor="#e58139e6"] ;
198 -> 200 ;
201 [label="PP3 <= 0.01\ngini = 0.32\nsamples = 6\nvalue = [8, 2]\nclass = AMP", fillcolor="#e58139bf"] ;
200 -> 201 ;
202 [label="PP3 <= 0.01\ngini = 0.2\nsamples = 5\nvalue = [8, 1]\nclass = AMP", fillcolor="#e58139df"] ;
201 -> 202 ;
203 [label="gini = 0.24\nsamples = 4\nvalue = [6, 1]\nclass = AMP", fillcolor="#e58139d4"] ;
202 -> 203 ;
204 [label="gini = 0.0\nsamples = 1\nvalue = [2, 0]\nclass = AMP", fillcolor="#e58139ff"] ;
202 -> 204 ;
205 [label="gini = 0.0\nsamples = 1\nvalue = [0, 1]\nclass = NAMP", fillcolor="#399de5ff"] ;
201 -> 205 ;
206 [label="gini = 0.0\nsamples = 7\nvalue = [12, 0]\nclass = AMP", fillcolor="#e58139ff"] ;
200 -> 206 ;
207 [label="PP3 <= 0.01\ngini = 0.36\nsamples = 34\nvalue = [40, 12]\nclass = AMP", fillcolor="#e58139b3"] ;
177 -> 207 ;
208 [label="PP3 <= 0.01\ngini = 0.38\nsamples = 8\nvalue = [3, 9]\nclass = NAMP", fillcolor="#399de5aa"] ;
207 -> 208 ;
209 [label="gini = 0.0\nsamples = 4\nvalue = [0, 5]\nclass = NAMP", fillcolor="#399de5ff"] ;
208 -> 209 ;
210 [label="PP3 <= 0.01\ngini = 0.49\nsamples = 4\nvalue = [3, 4]\nclass = NAMP", fillcolor="#399de540"] ;
208 -> 210 ;
211 [label="gini = 0.0\nsamples = 2\nvalue = [2, 0]\nclass = AMP", fillcolor="#e58139ff"] ;
210 -> 211 ;
212 [label="gini = 0.32\nsamples = 2\nvalue = [1, 4]\nclass = NAMP", fillcolor="#399de5bf"] ;
210 -> 212 ;
213 [label="PP3 <= 0.02\ngini = 0.14\nsamples = 26\nvalue = [37, 3]\nclass = AMP", fillcolor="#e58139ea"] ;
207 -> 213 ;
214 [label="PP3 <= 0.02\ngini = 0.06\nsamples = 21\nvalue = [32, 1]\nclass = AMP", fillcolor="#e58139f7"] ;
213 -> 214 ;
215 [label="gini = 0.0\nsamples = 16\nvalue = [25, 0]\nclass = AMP", fillcolor="#e58139ff"] ;
214 -> 215 ;
216 [label="PP3 <= 0.02\ngini = 0.22\nsamples = 5\nvalue = [7, 1]\nclass = AMP", fillcolor="#e58139db"] ;
214 -> 216 ;
217 [label="gini = 0.0\nsamples = 1\nvalue = [0, 1]\nclass = NAMP", fillcolor="#399de5ff"] ;
216 -> 217 ;
218 [label="gini = 0.0\nsamples = 4\nvalue = [7, 0]\nclass = AMP", fillcolor="#e58139ff"] ;
216 -> 218 ;
219 [label="PP3 <= 0.03\ngini = 0.41\nsamples = 5\nvalue = [5, 2]\nclass = AMP", fillcolor="#e5813999"] ;
213 -> 219 ;
220 [label="gini = 0.44\nsamples = 2\nvalue = [1, 2]\nclass = NAMP", fillcolor="#399de57f"] ;
219 -> 220 ;
221 [label="gini = 0.0\nsamples = 3\nvalue = [4, 0]\nclass = AMP", fillcolor="#e58139ff"] ;
219 -> 221 ;
222 [label="gini = 0.38\nsamples = 2\nvalue = [1, 3]\nclass = NAMP", fillcolor="#399de5aa"] ;
176 -> 222 ;
223 [label="PP3 <= 0.04\ngini = 0.13\nsamples = 70\nvalue = [104, 8]\nclass = AMP", fillcolor="#e58139eb"] ;
175 -> 223 ;
224 [label="PP3 <= 0.04\ngini = 0.17\nsamples = 53\nvalue = [75, 8]\nclass = AMP", fillcolor="#e58139e4"] ;
223 -> 224 ;
225 [label="PP3 <= 0.03\ngini = 0.12\nsamples = 51\nvalue = [75, 5]\nclass = AMP", fillcolor="#e58139ee"] ;
224 -> 225 ;
226 [label="PP3 <= 0.03\ngini = 0.18\nsamples = 27\nvalue = [37, 4]\nclass = AMP", fillcolor="#e58139e3"] ;
225 -> 226 ;
227 [label="PP3 <= 0.03\ngini = 0.1\nsamples = 26\nvalue = [37, 2]\nclass = AMP", fillcolor="#e58139f1"] ;
226 -> 227 ;
228 [label="PP3 <= 0.03\ngini = 0.18\nsamples = 6\nvalue = [9, 1]\nclass = AMP", fillcolor="#e58139e3"] ;
227 -> 228 ;
229 [label="gini = 0.0\nsamples = 5\nvalue = [9, 0]\nclass = AMP", fillcolor="#e58139ff"] ;
228 -> 229 ;
230 [label="gini = 0.0\nsamples = 1\nvalue = [0, 1]\nclass = NAMP", fillcolor="#399de5ff"] ;
228 -> 230 ;
231 [label="PP3 <= 0.03\ngini = 0.07\nsamples = 20\nvalue = [28, 1]\nclass = AMP", fillcolor="#e58139f6"] ;
227 -> 231 ;
232 [label="gini = 0.0\nsamples = 11\nvalue = [17, 0]\nclass = AMP", fillcolor="#e58139ff"] ;
231 -> 232 ;
233 [label="PP3 <= 0.03\ngini = 0.15\nsamples = 9\nvalue = [11, 1]\nclass = AMP", fillcolor="#e58139e8"] ;
231 -> 233 ;
234 [label="gini = 0.44\nsamples = 3\nvalue = [2, 1]\nclass = AMP", fillcolor="#e581397f"] ;
233 -> 234 ;
235 [label="gini = 0.0\nsamples = 6\nvalue = [9, 0]\nclass = AMP", fillcolor="#e58139ff"] ;
233 -> 235 ;
236 [label="gini = 0.0\nsamples = 1\nvalue = [0, 2]\nclass = NAMP", fillcolor="#399de5ff"] ;
226 -> 236 ;
237 [label="PP3 <= 0.03\ngini = 0.05\nsamples = 24\nvalue = [38, 1]\nclass = AMP", fillcolor="#e58139f8"] ;
225 -> 237 ;
238 [label="gini = 0.0\nsamples = 16\nvalue = [28, 0]\nclass = AMP", fillcolor="#e58139ff"] ;
237 -> 238 ;
239 [label="PP3 <= 0.04\ngini = 0.17\nsamples = 8\nvalue = [10, 1]\nclass = AMP", fillcolor="#e58139e6"] ;
237 -> 239 ;
240 [label="gini = 0.44\nsamples = 3\nvalue = [2, 1]\nclass = AMP", fillcolor="#e581397f"] ;
239 -> 240 ;
241 [label="gini = 0.0\nsamples = 5\nvalue = [8, 0]\nclass = AMP", fillcolor="#e58139ff"] ;
239 -> 241 ;
242 [label="gini = 0.0\nsamples = 2\nvalue = [0, 3]\nclass = NAMP", fillcolor="#399de5ff"] ;
224 -> 242 ;
243 [label="gini = 0.0\nsamples = 17\nvalue = [29, 0]\nclass = AMP", fillcolor="#e58139ff"] ;
223 -> 243 ;
244 [label="PP3 <= 0.05\ngini = 0.3\nsamples = 75\nvalue = [95, 21]\nclass = AMP", fillcolor="#e58139c7"] ;
174 -> 244 ;
245 [label="PP3 <= 0.04\ngini = 0.5\nsamples = 7\nvalue = [6, 6]\nclass = AMP", fillcolor="#e5813900"] ;
244 -> 245 ;
246 [label="PP3 <= 0.04\ngini = 0.47\nsamples = 4\nvalue = [5, 3]\nclass = AMP", fillcolor="#e5813966"] ;
245 -> 246 ;
247 [label="gini = 0.5\nsamples = 3\nvalue = [3, 3]\nclass = AMP", fillcolor="#e5813900"] ;
246 -> 247 ;
248 [label="gini = 0.0\nsamples = 1\nvalue = [2, 0]\nclass = AMP", fillcolor="#e58139ff"] ;
246 -> 248 ;
249 [label="PP3 <= 0.05\ngini = 0.38\nsamples = 3\nvalue = [1, 3]\nclass = NAMP", fillcolor="#399de5aa"] ;
245 -> 249 ;
250 [label="gini = 0.44\nsamples = 2\nvalue = [1, 2]\nclass = NAMP", fillcolor="#399de57f"] ;
249 -> 250 ;
251 [label="gini = 0.0\nsamples = 1\nvalue = [0, 1]\nclass = NAMP", fillcolor="#399de5ff"] ;
249 -> 251 ;
252 [label="PP3 <= 0.05\ngini = 0.25\nsamples = 68\nvalue = [89, 15]\nclass = AMP", fillcolor="#e58139d4"] ;
244 -> 252 ;
253 [label="gini = 0.0\nsamples = 11\nvalue = [17, 0]\nclass = AMP", fillcolor="#e58139ff"] ;
252 -> 253 ;
254 [label="PP3 <= 0.05\ngini = 0.29\nsamples = 57\nvalue = [72, 15]\nclass = AMP", fillcolor="#e58139ca"] ;
252 -> 254 ;
255 [label="PP3 <= 0.05\ngini = 0.44\nsamples = 7\nvalue = [3, 6]\nclass = NAMP", fillcolor="#399de57f"] ;
254 -> 255 ;
256 [label="gini = 0.0\nsamples = 1\nvalue = [0, 1]\nclass = NAMP", fillcolor="#399de5ff"] ;
255 -> 256 ;
257 [label="PP3 <= 0.05\ngini = 0.47\nsamples = 6\nvalue = [3, 5]\nclass = NAMP", fillcolor="#399de566"] ;
255 -> 257 ;
258 [label="gini = 0.5\nsamples = 2\nvalue = [2, 2]\nclass = AMP", fillcolor="#e5813900"] ;
257 -> 258 ;
259 [label="gini = 0.38\nsamples = 4\nvalue = [1, 3]\nclass = NAMP", fillcolor="#399de5aa"] ;
257 -> 259 ;
260 [label="PP3 <= 0.06\ngini = 0.2\nsamples = 50\nvalue = [69, 9]\nclass = AMP", fillcolor="#e58139de"] ;
254 -> 260 ;
261 [label="PP3 <= 0.05\ngini = 0.05\nsamples = 25\nvalue = [39, 1]\nclass = AMP", fillcolor="#e58139f8"] ;
260 -> 261 ;
262 [label="PP3 <= 0.05\ngini = 0.18\nsamples = 7\nvalue = [9, 1]\nclass = AMP", fillcolor="#e58139e3"] ;
261 -> 262 ;
263 [label="gini = 0.0\nsamples = 6\nvalue = [9, 0]\nclass = AMP", fillcolor="#e58139ff"] ;
262 -> 263 ;
264 [label="gini = 0.0\nsamples = 1\nvalue = [0, 1]\nclass = NAMP", fillcolor="#399de5ff"] ;
262 -> 264 ;
265 [label="gini = 0.0\nsamples = 18\nvalue = [30, 0]\nclass = AMP", fillcolor="#e58139ff"] ;
261 -> 265 ;
266 [label="PP3 <= 0.06\ngini = 0.33\nsamples = 25\nvalue = [30, 8]\nclass = AMP", fillcolor="#e58139bb"] ;
260 -> 266 ;
267 [label="PP3 <= 0.06\ngini = 0.48\nsamples = 10\nvalue = [9, 6]\nclass = AMP", fillcolor="#e5813955"] ;
266 -> 267 ;
268 [label="PP3 <= 0.06\ngini = 0.24\nsamples = 5\nvalue = [6, 1]\nclass = AMP", fillcolor="#e58139d4"] ;
267 -> 268 ;
269 [label="gini = 0.0\nsamples = 1\nvalue = [0, 1]\nclass = NAMP", fillcolor="#399de5ff"] ;
268 -> 269 ;
270 [label="gini = 0.0\nsamples = 4\nvalue = [6, 0]\nclass = AMP", fillcolor="#e58139ff"] ;
268 -> 270 ;
271 [label="PP3 <= 0.06\ngini = 0.47\nsamples = 5\nvalue = [3, 5]\nclass = NAMP", fillcolor="#399de566"] ;
267 -> 271 ;
272 [label="gini = 0.5\nsamples = 2\nvalue = [2, 2]\nclass = AMP", fillcolor="#e5813900"] ;
271 -> 272 ;
273 [label="gini = 0.38\nsamples = 3\nvalue = [1, 3]\nclass = NAMP", fillcolor="#399de5aa"] ;
271 -> 273 ;
274 [label="PP3 <= 0.06\ngini = 0.16\nsamples = 15\nvalue = [21, 2]\nclass = AMP", fillcolor="#e58139e7"] ;
266 -> 274 ;
275 [label="PP3 <= 0.06\ngini = 0.32\nsamples = 3\nvalue = [4, 1]\nclass = AMP", fillcolor="#e58139bf"] ;
274 -> 275 ;
276 [label="gini = 0.0\nsamples = 2\nvalue = [4, 0]\nclass = AMP", fillcolor="#e58139ff"] ;
275 -> 276 ;
277 [label="gini = 0.0\nsamples = 1\nvalue = [0, 1]\nclass = NAMP", fillcolor="#399de5ff"] ;
275 -> 277 ;
278 [label="PP3 <= 0.07\ngini = 0.1\nsamples = 12\nvalue = [17, 1]\nclass = AMP", fillcolor="#e58139f0"] ;
274 -> 278 ;
279 [label="gini = 0.0\nsamples = 7\nvalue = [10, 0]\nclass = AMP", fillcolor="#e58139ff"] ;
278 -> 279 ;
280 [label="PP3 <= 0.07\ngini = 0.22\nsamples = 5\nvalue = [7, 1]\nclass = AMP", fillcolor="#e58139db"] ;
278 -> 280 ;
281 [label="gini = 0.28\nsamples = 4\nvalue = [5, 1]\nclass = AMP", fillcolor="#e58139cc"] ;
280 -> 281 ;
282 [label="gini = 0.0\nsamples = 1\nvalue = [2, 0]\nclass = AMP", fillcolor="#e58139ff"] ;
280 -> 282 ;
283 [label="PP3 <= 0.07\ngini = 0.5\nsamples = 4\nvalue = [3, 3]\nclass = AMP", fillcolor="#e5813900"] ;
173 -> 283 ;
284 [label="gini = 0.0\nsamples = 1\nvalue = [0, 2]\nclass = NAMP", fillcolor="#399de5ff"] ;
283 -> 284 ;
285 [label="PP3 <= 0.07\ngini = 0.38\nsamples = 3\nvalue = [3, 1]\nclass = AMP", fillcolor="#e58139aa"] ;
283 -> 285 ;
286 [label="gini = 0.0\nsamples = 1\nvalue = [2, 0]\nclass = AMP", fillcolor="#e58139ff"] ;
285 -> 286 ;
287 [label="gini = 0.5\nsamples = 2\nvalue = [1, 1]\nclass = AMP", fillcolor="#e5813900"] ;
285 -> 287 ;
288 [label="PP3 <= 0.07\ngini = 0.05\nsamples = 23\nvalue = [37, 1]\nclass = AMP", fillcolor="#e58139f8"] ;
172 -> 288 ;
289 [label="gini = 0.0\nsamples = 18\nvalue = [32, 0]\nclass = AMP", fillcolor="#e58139ff"] ;
288 -> 289 ;
290 [label="PP3 <= 0.07\ngini = 0.28\nsamples = 5\nvalue = [5, 1]\nclass = AMP", fillcolor="#e58139cc"] ;
288 -> 290 ;
291 [label="gini = 0.0\nsamples = 1\nvalue = [0, 1]\nclass = NAMP", fillcolor="#399de5ff"] ;
290 -> 291 ;
292 [label="gini = 0.0\nsamples = 4\nvalue = [5, 0]\nclass = AMP", fillcolor="#e58139ff"] ;
290 -> 292 ;
293 [label="PP3 <= 0.07\ngini = 0.35\nsamples = 24\nvalue = [31, 9]\nclass = AMP", fillcolor="#e58139b5"] ;
171 -> 293 ;
294 [label="gini = 0.0\nsamples = 1\nvalue = [0, 3]\nclass = NAMP", fillcolor="#399de5ff"] ;
293 -> 294 ;
295 [label="PP3 <= 0.08\ngini = 0.27\nsamples = 23\nvalue = [31, 6]\nclass = AMP", fillcolor="#e58139ce"] ;
293 -> 295 ;
296 [label="gini = 0.0\nsamples = 5\nvalue = [9, 0]\nclass = AMP", fillcolor="#e58139ff"] ;
295 -> 296 ;
297 [label="PP3 <= 0.08\ngini = 0.34\nsamples = 18\nvalue = [22, 6]\nclass = AMP", fillcolor="#e58139b9"] ;
295 -> 297 ;
298 [label="gini = 0.0\nsamples = 1\nvalue = [0, 2]\nclass = NAMP", fillcolor="#399de5ff"] ;
297 -> 298 ;
299 [label="PP3 <= 0.08\ngini = 0.26\nsamples = 17\nvalue = [22, 4]\nclass = AMP", fillcolor="#e58139d1"] ;
297 -> 299 ;
300 [label="gini = 0.0\nsamples = 6\nvalue = [9, 0]\nclass = AMP", fillcolor="#e58139ff"] ;
299 -> 300 ;
301 [label="PP3 <= 0.08\ngini = 0.36\nsamples = 11\nvalue = [13, 4]\nclass = AMP", fillcolor="#e58139b1"] ;
299 -> 301 ;
302 [label="gini = 0.0\nsamples = 1\nvalue = [0, 2]\nclass = NAMP", fillcolor="#399de5ff"] ;
301 -> 302 ;
303 [label="PP3 <= 0.08\ngini = 0.23\nsamples = 10\nvalue = [13, 2]\nclass = AMP", fillcolor="#e58139d8"] ;
301 -> 303 ;
304 [label="gini = 0.0\nsamples = 2\nvalue = [4, 0]\nclass = AMP", fillcolor="#e58139ff"] ;
303 -> 304 ;
305 [label="PP3 <= 0.08\ngini = 0.3\nsamples = 8\nvalue = [9, 2]\nclass = AMP", fillcolor="#e58139c6"] ;
303 -> 305 ;
306 [label="PP3 <= 0.08\ngini = 0.35\nsamples = 7\nvalue = [7, 2]\nclass = AMP", fillcolor="#e58139b6"] ;
305 -> 306 ;
307 [label="PP3 <= 0.08\ngini = 0.24\nsamples = 5\nvalue = [6, 1]\nclass = AMP", fillcolor="#e58139d4"] ;
306 -> 307 ;
308 [label="gini = 0.32\nsamples = 3\nvalue = [4, 1]\nclass = AMP", fillcolor="#e58139bf"] ;
307 -> 308 ;
309 [label="gini = 0.0\nsamples = 2\nvalue = [2, 0]\nclass = AMP", fillcolor="#e58139ff"] ;
307 -> 309 ;
310 [label="gini = 0.5\nsamples = 2\nvalue = [1, 1]\nclass = AMP", fillcolor="#e5813900"] ;
306 -> 310 ;
311 [label="gini = 0.0\nsamples = 1\nvalue = [2, 0]\nclass = AMP", fillcolor="#e58139ff"] ;
305 -> 311 ;
312 [label="gini = 0.0\nsamples = 3\nvalue = [0, 5]\nclass = NAMP", fillcolor="#399de5ff"] ;
164 -> 312 ;
313 [label="PP3 <= 0.13\ngini = 0.16\nsamples = 778\nvalue = [1126, 108]\nclass = AMP", fillcolor="#e58139e7"] ;
163 -> 313 ;
314 [label="PP3 <= 0.11\ngini = 0.08\nsamples = 234\nvalue = [362, 16]\nclass = AMP", fillcolor="#e58139f4"] ;
313 -> 314 ;
315 [label="PP3 <= 0.1\ngini = 0.05\nsamples = 119\nvalue = [183, 5]\nclass = AMP", fillcolor="#e58139f8"] ;
314 -> 315 ;
316 [label="PP3 <= 0.1\ngini = 0.08\nsamples = 77\nvalue = [116, 5]\nclass = AMP", fillcolor="#e58139f4"] ;
315 -> 316 ;
317 [label="PP3 <= 0.09\ngini = 0.04\nsamples = 63\nvalue = [95, 2]\nclass = AMP", fillcolor="#e58139fa"] ;
316 -> 317 ;
318 [label="PP3 <= 0.09\ngini = 0.13\nsamples = 17\nvalue = [26, 2]\nclass = AMP", fillcolor="#e58139eb"] ;
317 -> 318 ;
319 [label="gini = 0.0\nsamples = 14\nvalue = [24, 0]\nclass = AMP", fillcolor="#e58139ff"] ;
318 -> 319 ;
320 [label="gini = 0.5\nsamples = 3\nvalue = [2, 2]\nclass = AMP", fillcolor="#e5813900"] ;
318 -> 320 ;
321 [label="gini = 0.0\nsamples = 46\nvalue = [69, 0]\nclass = AMP", fillcolor="#e58139ff"] ;
317 -> 321 ;
322 [label="PP3 <= 0.1\ngini = 0.22\nsamples = 14\nvalue = [21, 3]\nclass = AMP", fillcolor="#e58139db"] ;
316 -> 322 ;
323 [label="PP3 <= 0.1\ngini = 0.44\nsamples = 3\nvalue = [1, 2]\nclass = NAMP", fillcolor="#399de57f"] ;
322 -> 323 ;
324 [label="gini = 0.0\nsamples = 1\nvalue = [0, 1]\nclass = NAMP", fillcolor="#399de5ff"] ;
323 -> 324 ;
325 [label="PP3 <= 0.1\ngini = 0.5\nsamples = 2\nvalue = [1, 1]\nclass = AMP", fillcolor="#e5813900"] ;
323 -> 325 ;
326 [label="gini = 0.0\nsamples = 1\nvalue = [1, 0]\nclass = AMP", fillcolor="#e58139ff"] ;
325 -> 326 ;
327 [label="gini = 0.0\nsamples = 1\nvalue = [0, 1]\nclass = NAMP", fillcolor="#399de5ff"] ;
325 -> 327 ;
328 [label="PP3 <= 0.1\ngini = 0.09\nsamples = 11\nvalue = [20, 1]\nclass = AMP", fillcolor="#e58139f2"] ;
322 -> 328 ;
329 [label="gini = 0.0\nsamples = 3\nvalue = [6, 0]\nclass = AMP", fillcolor="#e58139ff"] ;
328 -> 329 ;
330 [label="gini = 0.12\nsamples = 8\nvalue = [14, 1]\nclass = AMP", fillcolor="#e58139ed"] ;
328 -> 330 ;
331 [label="gini = 0.0\nsamples = 42\nvalue = [67, 0]\nclass = AMP", fillcolor="#e58139ff"] ;
315 -> 331 ;
332 [label="PP3 <= 0.11\ngini = 0.11\nsamples = 115\nvalue = [179, 11]\nclass = AMP", fillcolor="#e58139ef"] ;
314 -> 332 ;
333 [label="PP3 <= 0.11\ngini = 0.5\nsamples = 7\nvalue = [5, 5]\nclass = AMP", fillcolor="#e5813900"] ;
332 -> 333 ;
334 [label="gini = 0.41\nsamples = 5\nvalue = [5, 2]\nclass = AMP", fillcolor="#e5813999"] ;
333 -> 334 ;
335 [label="gini = 0.0\nsamples = 2\nvalue = [0, 3]\nclass = NAMP", fillcolor="#399de5ff"] ;
333 -> 335 ;
336 [label="PP3 <= 0.13\ngini = 0.06\nsamples = 108\nvalue = [174, 6]\nclass = AMP", fillcolor="#e58139f6"] ;
332 -> 336 ;
337 [label="PP3 <= 0.12\ngini = 0.03\nsamples = 70\nvalue = [123, 2]\nclass = AMP", fillcolor="#e58139fb"] ;
336 -> 337 ;
338 [label="gini = 0.0\nsamples = 35\nvalue = [63, 0]\nclass = AMP", fillcolor="#e58139ff"] ;
337 -> 338 ;
339 [label="PP3 <= 0.12\ngini = 0.06\nsamples = 35\nvalue = [60, 2]\nclass = AMP", fillcolor="#e58139f6"] ;
337 -> 339 ;
340 [label="gini = 0.0\nsamples = 1\nvalue = [0, 1]\nclass = NAMP", fillcolor="#399de5ff"] ;
339 -> 340 ;
341 [label="PP3 <= 0.12\ngini = 0.03\nsamples = 34\nvalue = [60, 1]\nclass = AMP", fillcolor="#e58139fb"] ;
339 -> 341 ;
342 [label="PP3 <= 0.12\ngini = 0.08\nsamples = 14\nvalue = [22, 1]\nclass = AMP", fillcolor="#e58139f3"] ;
341 -> 342 ;
343 [label="gini = 0.0\nsamples = 12\nvalue = [19, 0]\nclass = AMP", fillcolor="#e58139ff"] ;
342 -> 343 ;
344 [label="gini = 0.38\nsamples = 2\nvalue = [3, 1]\nclass = AMP", fillcolor="#e58139aa"] ;
342 -> 344 ;
345 [label="gini = 0.0\nsamples = 20\nvalue = [38, 0]\nclass = AMP", fillcolor="#e58139ff"] ;
341 -> 345 ;
346 [label="PP3 <= 0.13\ngini = 0.13\nsamples = 38\nvalue = [51, 4]\nclass = AMP", fillcolor="#e58139eb"] ;
336 -> 346 ;
347 [label="gini = 0.0\nsamples = 1\nvalue = [0, 1]\nclass = NAMP", fillcolor="#399de5ff"] ;
346 -> 347 ;
348 [label="PP3 <= 0.13\ngini = 0.1\nsamples = 37\nvalue = [51, 3]\nclass = AMP", fillcolor="#e58139f0"] ;
346 -> 348 ;
349 [label="PP3 <= 0.13\ngini = 0.3\nsamples = 11\nvalue = [13, 3]\nclass = AMP", fillcolor="#e58139c4"] ;
348 -> 349 ;
350 [label="gini = 0.0\nsamples = 8\nvalue = [11, 0]\nclass = AMP", fillcolor="#e58139ff"] ;
349 -> 350 ;
351 [label="gini = 0.48\nsamples = 3\nvalue = [2, 3]\nclass = NAMP", fillcolor="#399de555"] ;
349 -> 351 ;
352 [label="gini = 0.0\nsamples = 26\nvalue = [38, 0]\nclass = AMP", fillcolor="#e58139ff"] ;
348 -> 352 ;
353 [label="PP3 <= 0.14\ngini = 0.19\nsamples = 544\nvalue = [764, 92]\nclass = AMP", fillcolor="#e58139e0"] ;
313 -> 353 ;
354 [label="PP3 <= 0.14\ngini = 0.24\nsamples = 4\nvalue = [1, 6]\nclass = NAMP", fillcolor="#399de5d4"] ;
353 -> 354 ;
355 [label="gini = 0.0\nsamples = 1\nvalue = [0, 4]\nclass = NAMP", fillcolor="#399de5ff"] ;
354 -> 355 ;
356 [label="PP3 <= 0.14\ngini = 0.44\nsamples = 3\nvalue = [1, 2]\nclass = NAMP", fillcolor="#399de57f"] ;
354 -> 356 ;
357 [label="gini = 0.5\nsamples = 2\nvalue = [1, 1]\nclass = AMP", fillcolor="#e5813900"] ;
356 -> 357 ;
358 [label="gini = 0.0\nsamples = 1\nvalue = [0, 1]\nclass = NAMP", fillcolor="#399de5ff"] ;
356 -> 358 ;
359 [label="PP3 <= 0.21\ngini = 0.18\nsamples = 540\nvalue = [763, 86]\nclass = AMP", fillcolor="#e58139e2"] ;
353 -> 359 ;
360 [label="PP3 <= 0.21\ngini = 0.19\nsamples = 502\nvalue = [707, 86]\nclass = AMP", fillcolor="#e58139e0"] ;
359 -> 360 ;
361 [label="PP3 <= 0.14\ngini = 0.19\nsamples = 500\nvalue = [707, 84]\nclass = AMP", fillcolor="#e58139e1"] ;
360 -> 361 ;
362 [label="PP3 <= 0.14\ngini = 0.38\nsamples = 14\nvalue = [15, 5]\nclass = AMP", fillcolor="#e58139aa"] ;
361 -> 362 ;
363 [label="gini = 0.0\nsamples = 10\nvalue = [14, 0]\nclass = AMP", fillcolor="#e58139ff"] ;
362 -> 363 ;
364 [label="PP3 <= 0.14\ngini = 0.28\nsamples = 4\nvalue = [1, 5]\nclass = NAMP", fillcolor="#399de5cc"] ;
362 -> 364 ;
365 [label="gini = 0.0\nsamples = 2\nvalue = [0, 3]\nclass = NAMP", fillcolor="#399de5ff"] ;
364 -> 365 ;
366 [label="PP3 <= 0.14\ngini = 0.44\nsamples = 2\nvalue = [1, 2]\nclass = NAMP", fillcolor="#399de57f"] ;
364 -> 366 ;
367 [label="gini = 0.0\nsamples = 1\nvalue = [1, 0]\nclass = AMP", fillcolor="#e58139ff"] ;
366 -> 367 ;
368 [label="gini = 0.0\nsamples = 1\nvalue = [0, 2]\nclass = NAMP", fillcolor="#399de5ff"] ;
366 -> 368 ;
369 [label="PP3 <= 0.2\ngini = 0.18\nsamples = 486\nvalue = [692, 79]\nclass = AMP", fillcolor="#e58139e2"] ;
361 -> 369 ;
370 [label="PP3 <= 0.2\ngini = 0.17\nsamples = 415\nvalue = [590, 62]\nclass = AMP", fillcolor="#e58139e4"] ;
369 -> 370 ;
371 [label="PP3 <= 0.2\ngini = 0.18\nsamples = 385\nvalue = [545, 61]\nclass = AMP", fillcolor="#e58139e2"] ;
370 -> 371 ;
372 [label="PP3 <= 0.19\ngini = 0.17\nsamples = 381\nvalue = [544, 56]\nclass = AMP", fillcolor="#e58139e5"] ;
371 -> 372 ;
373 [label="PP3 <= 0.19\ngini = 0.18\nsamples = 345\nvalue = [491, 55]\nclass = AMP", fillcolor="#e58139e2"] ;
372 -> 373 ;
374 [label="PP3 <= 0.19\ngini = 0.17\nsamples = 343\nvalue = [491, 51]\nclass = AMP", fillcolor="#e58139e5"] ;
373 -> 374 ;
375 [label="PP3 <= 0.19\ngini = 0.18\nsamples = 305\nvalue = [440, 50]\nclass = AMP", fillcolor="#e58139e2"] ;
374 -> 375 ;
376 [label="PP3 <= 0.18\ngini = 0.17\nsamples = 292\nvalue = [426, 44]\nclass = AMP", fillcolor="#e58139e5"] ;
375 -> 376 ;
377 [label="PP3 <= 0.18\ngini = 0.18\nsamples = 265\nvalue = [388, 44]\nclass = AMP", fillcolor="#e58139e2"] ;
376 -> 377 ;
378 [label="PP3 <= 0.18\ngini = 0.18\nsamples = 262\nvalue = [387, 42]\nclass = AMP", fillcolor="#e58139e3"] ;
377 -> 378 ;
379 [label="PP3 <= 0.17\ngini = 0.17\nsamples = 245\nvalue = [369, 37]\nclass = AMP", fillcolor="#e58139e5"] ;
378 -> 379 ;
380 [label="PP3 <= 0.17\ngini = 0.19\nsamples = 191\nvalue = [279, 33]\nclass = AMP", fillcolor="#e58139e1"] ;
379 -> 380 ;
381 [label="PP3 <= 0.16\ngini = 0.16\nsamples = 184\nvalue = [272, 27]\nclass = AMP", fillcolor="#e58139e6"] ;
380 -> 381 ;
382 [label="PP3 <= 0.16\ngini = 0.22\nsamples = 99\nvalue = [135, 19]\nclass = AMP", fillcolor="#e58139db"] ;
381 -> 382 ;
383 [label="PP3 <= 0.15\ngini = 0.19\nsamples = 98\nvalue = [135, 16]\nclass = AMP", fillcolor="#e58139e1"] ;
382 -> 383 ;
384 [label="PP3 <= 0.15\ngini = 0.14\nsamples = 87\nvalue = [122, 10]\nclass = AMP", fillcolor="#e58139ea"] ;
383 -> 384 ;
385 [label="PP3 <= 0.15\ngini = 0.21\nsamples = 51\nvalue = [66, 9]\nclass = AMP", fillcolor="#e58139dc"] ;
384 -> 385 ;
386 [label="PP3 <= 0.14\ngini = 0.16\nsamples = 40\nvalue = [54, 5]\nclass = AMP", fillcolor="#e58139e7"] ;
385 -> 386 ;
387 [label="PP3 <= 0.14\ngini = 0.26\nsamples = 24\nvalue = [28, 5]\nclass = AMP", fillcolor="#e58139d1"] ;
386 -> 387 ;
388 [label="PP3 <= 0.14\ngini = 0.13\nsamples = 21\nvalue = [27, 2]\nclass = AMP", fillcolor="#e58139ec"] ;
387 -> 388 ;
389 [label="PP3 <= 0.14\ngini = 0.07\nsamples = 18\nvalue = [25, 1]\nclass = AMP", fillcolor="#e58139f5"] ;
388 -> 389 ;
390 [label="PP3 <= 0.14\ngini = 0.28\nsamples = 4\nvalue = [5, 1]\nclass = AMP", fillcolor="#e58139cc"] ;
389 -> 390 ;
391 [label="gini = 0.0\nsamples = 3\nvalue = [5, 0]\nclass = AMP", fillcolor="#e58139ff"] ;
390 -> 391 ;
392 [label="gini = 0.0\nsamples = 1\nvalue = [0, 1]\nclass = NAMP", fillcolor="#399de5ff"] ;
390 -> 392 ;
393 [label="gini = 0.0\nsamples = 14\nvalue = [20, 0]\nclass = AMP", fillcolor="#e58139ff"] ;
389 -> 393 ;
394 [label="PP3 <= 0.14\ngini = 0.44\nsamples = 3\nvalue = [2, 1]\nclass = AMP", fillcolor="#e581397f"] ;
388 -> 394 ;
395 [label="gini = 0.0\nsamples = 1\nvalue = [0, 1]\nclass = NAMP", fillcolor="#399de5ff"] ;
394 -> 395 ;
396 [label="gini = 0.0\nsamples = 2\nvalue = [2, 0]\nclass = AMP", fillcolor="#e58139ff"] ;
394 -> 396 ;
397 [label="PP3 <= 0.14\ngini = 0.38\nsamples = 3\nvalue = [1, 3]\nclass = NAMP", fillcolor="#399de5aa"] ;
387 -> 397 ;
398 [label="PP3 <= 0.14\ngini = 0.5\nsamples = 2\nvalue = [1, 1]\nclass = AMP", fillcolor="#e5813900"] ;
397 -> 398 ;
399 [label="gini = 0.0\nsamples = 1\nvalue = [0, 1]\nclass = NAMP", fillcolor="#399de5ff"] ;
398 -> 399 ;
400 [label="gini = 0.0\nsamples = 1\nvalue = [1, 0]\nclass = AMP", fillcolor="#e58139ff"] ;
398 -> 400 ;
401 [label="gini = 0.0\nsamples = 1\nvalue = [0, 2]\nclass = NAMP", fillcolor="#399de5ff"] ;
397 -> 401 ;
402 [label="gini = 0.0\nsamples = 16\nvalue = [26, 0]\nclass = AMP", fillcolor="#e58139ff"] ;
386 -> 402 ;
403 [label="PP3 <= 0.15\ngini = 0.38\nsamples = 11\nvalue = [12, 4]\nclass = AMP", fillcolor="#e58139aa"] ;
385 -> 403 ;
404 [label="gini = 0.0\nsamples = 1\nvalue = [0, 2]\nclass = NAMP", fillcolor="#399de5ff"] ;
403 -> 404 ;
405 [label="PP3 <= 0.15\ngini = 0.24\nsamples = 10\nvalue = [12, 2]\nclass = AMP", fillcolor="#e58139d4"] ;
403 -> 405 ;
406 [label="PP3 <= 0.15\ngini = 0.15\nsamples = 8\nvalue = [11, 1]\nclass = AMP", fillcolor="#e58139e8"] ;
405 -> 406 ;
407 [label="gini = 0.0\nsamples = 5\nvalue = [6, 0]\nclass = AMP", fillcolor="#e58139ff"] ;
406 -> 407 ;
408 [label="gini = 0.28\nsamples = 3\nvalue = [5, 1]\nclass = AMP", fillcolor="#e58139cc"] ;
406 -> 408 ;
409 [label="gini = 0.5\nsamples = 2\nvalue = [1, 1]\nclass = AMP", fillcolor="#e5813900"] ;
405 -> 409 ;
410 [label="PP3 <= 0.15\ngini = 0.03\nsamples = 36\nvalue = [56, 1]\nclass = AMP", fillcolor="#e58139fa"] ;
384 -> 410 ;
411 [label="PP3 <= 0.15\ngini = 0.11\nsamples = 9\nvalue = [16, 1]\nclass = AMP", fillcolor="#e58139ef"] ;
410 -> 411 ;
412 [label="gini = 0.0\nsamples = 8\nvalue = [16, 0]\nclass = AMP", fillcolor="#e58139ff"] ;
411 -> 412 ;
413 [label="gini = 0.0\nsamples = 1\nvalue = [0, 1]\nclass = NAMP", fillcolor="#399de5ff"] ;
411 -> 413 ;
414 [label="gini = 0.0\nsamples = 27\nvalue = [40, 0]\nclass = AMP", fillcolor="#e58139ff"] ;
410 -> 414 ;
415 [label="PP3 <= 0.15\ngini = 0.43\nsamples = 11\nvalue = [13, 6]\nclass = AMP", fillcolor="#e5813989"] ;
383 -> 415 ;
416 [label="gini = 0.0\nsamples = 2\nvalue = [0, 6]\nclass = NAMP", fillcolor="#399de5ff"] ;
415 -> 416 ;
417 [label="gini = 0.0\nsamples = 9\nvalue = [13, 0]\nclass = AMP", fillcolor="#e58139ff"] ;
415 -> 417 ;
418 [label="gini = 0.0\nsamples = 1\nvalue = [0, 3]\nclass = NAMP", fillcolor="#399de5ff"] ;
382 -> 418 ;
419 [label="PP3 <= 0.17\ngini = 0.1\nsamples = 85\nvalue = [137, 8]\nclass = AMP", fillcolor="#e58139f0"] ;
381 -> 419 ;
420 [label="PP3 <= 0.16\ngini = 0.06\nsamples = 74\nvalue = [119, 4]\nclass = AMP", fillcolor="#e58139f6"] ;
419 -> 420 ;
421 [label="PP3 <= 0.16\ngini = 0.12\nsamples = 38\nvalue = [61, 4]\nclass = AMP", fillcolor="#e58139ee"] ;
420 -> 421 ;
422 [label="PP3 <= 0.16\ngini = 0.09\nsamples = 36\nvalue = [59, 3]\nclass = AMP", fillcolor="#e58139f2"] ;
421 -> 422 ;
423 [label="gini = 0.0\nsamples = 13\nvalue = [29, 0]\nclass = AMP", fillcolor="#e58139ff"] ;
422 -> 423 ;
424 [label="PP3 <= 0.16\ngini = 0.17\nsamples = 23\nvalue = [30, 3]\nclass = AMP", fillcolor="#e58139e6"] ;
422 -> 424 ;
425 [label="gini = 0.0\nsamples = 1\nvalue = [0, 1]\nclass = NAMP", fillcolor="#399de5ff"] ;
424 -> 425 ;
426 [label="PP3 <= 0.16\ngini = 0.12\nsamples = 22\nvalue = [30, 2]\nclass = AMP", fillcolor="#e58139ee"] ;
424 -> 426 ;
427 [label="PP3 <= 0.16\ngini = 0.28\nsamples = 9\nvalue = [10, 2]\nclass = AMP", fillcolor="#e58139cc"] ;
426 -> 427 ;
428 [label="gini = 0.0\nsamples = 8\nvalue = [10, 0]\nclass = AMP", fillcolor="#e58139ff"] ;
427 -> 428 ;
429 [label="gini = 0.0\nsamples = 1\nvalue = [0, 2]\nclass = NAMP", fillcolor="#399de5ff"] ;
427 -> 429 ;
430 [label="gini = 0.0\nsamples = 13\nvalue = [20, 0]\nclass = AMP", fillcolor="#e58139ff"] ;
426 -> 430 ;
431 [label="gini = 0.44\nsamples = 2\nvalue = [2, 1]\nclass = AMP", fillcolor="#e581397f"] ;
421 -> 431 ;
432 [label="gini = 0.0\nsamples = 36\nvalue = [58, 0]\nclass = AMP", fillcolor="#e58139ff"] ;
420 -> 432 ;
433 [label="PP3 <= 0.17\ngini = 0.3\nsamples = 11\nvalue = [18, 4]\nclass = AMP", fillcolor="#e58139c6"] ;
419 -> 433 ;
434 [label="gini = 0.0\nsamples = 2\nvalue = [0, 4]\nclass = NAMP", fillcolor="#399de5ff"] ;
433 -> 434 ;
435 [label="gini = 0.0\nsamples = 9\nvalue = [18, 0]\nclass = AMP", fillcolor="#e58139ff"] ;
433 -> 435 ;
436 [label="PP3 <= 0.17\ngini = 0.5\nsamples = 7\nvalue = [7, 6]\nclass = AMP", fillcolor="#e5813924"] ;
380 -> 436 ;
437 [label="gini = 0.0\nsamples = 1\nvalue = [0, 3]\nclass = NAMP", fillcolor="#399de5ff"] ;
436 -> 437 ;
438 [label="PP3 <= 0.17\ngini = 0.42\nsamples = 6\nvalue = [7, 3]\nclass = AMP", fillcolor="#e5813992"] ;
436 -> 438 ;
439 [label="gini = 0.0\nsamples = 4\nvalue = [5, 0]\nclass = AMP", fillcolor="#e58139ff"] ;
438 -> 439 ;
440 [label="gini = 0.48\nsamples = 2\nvalue = [2, 3]\nclass = NAMP", fillcolor="#399de555"] ;
438 -> 440 ;
441 [label="PP3 <= 0.18\ngini = 0.08\nsamples = 54\nvalue = [90, 4]\nclass = AMP", fillcolor="#e58139f4"] ;
379 -> 441 ;
442 [label="gini = 0.0\nsamples = 30\nvalue = [52, 0]\nclass = AMP", fillcolor="#e58139ff"] ;
441 -> 442 ;
443 [label="PP3 <= 0.18\ngini = 0.17\nsamples = 24\nvalue = [38, 4]\nclass = AMP", fillcolor="#e58139e4"] ;
441 -> 443 ;
444 [label="PP3 <= 0.18\ngini = 0.33\nsamples = 12\nvalue = [15, 4]\nclass = AMP", fillcolor="#e58139bb"] ;
443 -> 444 ;
445 [label="PP3 <= 0.18\ngini = 0.12\nsamples = 10\nvalue = [15, 1]\nclass = AMP", fillcolor="#e58139ee"] ;
444 -> 445 ;
446 [label="gini = 0.5\nsamples = 2\nvalue = [1, 1]\nclass = AMP", fillcolor="#e5813900"] ;
445 -> 446 ;
447 [label="gini = 0.0\nsamples = 8\nvalue = [14, 0]\nclass = AMP", fillcolor="#e58139ff"] ;
445 -> 447 ;
448 [label="gini = 0.0\nsamples = 2\nvalue = [0, 3]\nclass = NAMP", fillcolor="#399de5ff"] ;
444 -> 448 ;
449 [label="gini = 0.0\nsamples = 12\nvalue = [23, 0]\nclass = AMP", fillcolor="#e58139ff"] ;
443 -> 449 ;
450 [label="PP3 <= 0.18\ngini = 0.34\nsamples = 17\nvalue = [18, 5]\nclass = AMP", fillcolor="#e58139b8"] ;
378 -> 450 ;
451 [label="PP3 <= 0.18\ngini = 0.5\nsamples = 8\nvalue = [6, 5]\nclass = AMP", fillcolor="#e581392a"] ;
450 -> 451 ;
452 [label="PP3 <= 0.18\ngini = 0.41\nsamples = 6\nvalue = [5, 2]\nclass = AMP", fillcolor="#e5813999"] ;
451 -> 452 ;
453 [label="gini = 0.5\nsamples = 4\nvalue = [2, 2]\nclass = AMP", fillcolor="#e5813900"] ;
452 -> 453 ;
454 [label="gini = 0.0\nsamples = 2\nvalue = [3, 0]\nclass = AMP", fillcolor="#e58139ff"] ;
452 -> 454 ;
455 [label="gini = 0.38\nsamples = 2\nvalue = [1, 3]\nclass = NAMP", fillcolor="#399de5aa"] ;
451 -> 455 ;
456 [label="gini = 0.0\nsamples = 9\nvalue = [12, 0]\nclass = AMP", fillcolor="#e58139ff"] ;
450 -> 456 ;
457 [label="gini = 0.44\nsamples = 3\nvalue = [1, 2]\nclass = NAMP", fillcolor="#399de57f"] ;
377 -> 457 ;
458 [label="gini = 0.0\nsamples = 27\nvalue = [38, 0]\nclass = AMP", fillcolor="#e58139ff"] ;
376 -> 458 ;
459 [label="PP3 <= 0.19\ngini = 0.42\nsamples = 13\nvalue = [14, 6]\nclass = AMP", fillcolor="#e5813992"] ;
375 -> 459 ;
460 [label="PP3 <= 0.19\ngini = 0.32\nsamples = 3\nvalue = [1, 4]\nclass = NAMP", fillcolor="#399de5bf"] ;
459 -> 460 ;
461 [label="gini = 0.0\nsamples = 1\nvalue = [0, 2]\nclass = NAMP", fillcolor="#399de5ff"] ;
460 -> 461 ;
462 [label="gini = 0.44\nsamples = 2\nvalue = [1, 2]\nclass = NAMP", fillcolor="#399de57f"] ;
460 -> 462 ;
463 [label="PP3 <= 0.19\ngini = 0.23\nsamples = 10\nvalue = [13, 2]\nclass = AMP", fillcolor="#e58139d8"] ;
459 -> 463 ;
464 [label="PP3 <= 0.19\ngini = 0.13\nsamples = 9\nvalue = [13, 1]\nclass = AMP", fillcolor="#e58139eb"] ;
463 -> 464 ;
465 [label="PP3 <= 0.19\ngini = 0.28\nsamples = 4\nvalue = [5, 1]\nclass = AMP", fillcolor="#e58139cc"] ;
464 -> 465 ;
466 [label="gini = 0.0\nsamples = 2\nvalue = [4, 0]\nclass = AMP", fillcolor="#e58139ff"] ;
465 -> 466 ;
467 [label="gini = 0.5\nsamples = 2\nvalue = [1, 1]\nclass = AMP", fillcolor="#e5813900"] ;
465 -> 467 ;
468 [label="gini = 0.0\nsamples = 5\nvalue = [8, 0]\nclass = AMP", fillcolor="#e58139ff"] ;
464 -> 468 ;
469 [label="gini = 0.0\nsamples = 1\nvalue = [0, 1]\nclass = NAMP", fillcolor="#399de5ff"] ;
463 -> 469 ;
470 [label="PP3 <= 0.19\ngini = 0.04\nsamples = 38\nvalue = [51, 1]\nclass = AMP", fillcolor="#e58139fa"] ;
374 -> 470 ;
471 [label="gini = 0.0\nsamples = 24\nvalue = [33, 0]\nclass = AMP", fillcolor="#e58139ff"] ;
470 -> 471 ;
472 [label="PP3 <= 0.19\ngini = 0.1\nsamples = 14\nvalue = [18, 1]\nclass = AMP", fillcolor="#e58139f1"] ;
470 -> 472 ;
473 [label="gini = 0.0\nsamples = 1\nvalue = [0, 1]\nclass = NAMP", fillcolor="#399de5ff"] ;
472 -> 473 ;
474 [label="gini = 0.0\nsamples = 13\nvalue = [18, 0]\nclass = AMP", fillcolor="#e58139ff"] ;
472 -> 474 ;
475 [label="gini = 0.0\nsamples = 2\nvalue = [0, 4]\nclass = NAMP", fillcolor="#399de5ff"] ;
373 -> 475 ;
476 [label="PP3 <= 0.2\ngini = 0.04\nsamples = 36\nvalue = [53, 1]\nclass = AMP", fillcolor="#e58139fa"] ;
372 -> 476 ;
477 [label="gini = 0.0\nsamples = 21\nvalue = [34, 0]\nclass = AMP", fillcolor="#e58139ff"] ;
476 -> 477 ;
478 [label="PP3 <= 0.2\ngini = 0.09\nsamples = 15\nvalue = [19, 1]\nclass = AMP", fillcolor="#e58139f2"] ;
476 -> 478 ;
479 [label="gini = 0.0\nsamples = 1\nvalue = [0, 1]\nclass = NAMP", fillcolor="#399de5ff"] ;
478 -> 479 ;
480 [label="gini = 0.0\nsamples = 14\nvalue = [19, 0]\nclass = AMP", fillcolor="#e58139ff"] ;
478 -> 480 ;
481 [label="PP3 <= 0.2\ngini = 0.28\nsamples = 4\nvalue = [1, 5]\nclass = NAMP", fillcolor="#399de5cc"] ;
371 -> 481 ;
482 [label="gini = 0.0\nsamples = 2\nvalue = [0, 3]\nclass = NAMP", fillcolor="#399de5ff"] ;
481 -> 482 ;
483 [label="PP3 <= 0.2\ngini = 0.44\nsamples = 2\nvalue = [1, 2]\nclass = NAMP", fillcolor="#399de57f"] ;
481 -> 483 ;
484 [label="gini = 0.0\nsamples = 1\nvalue = [1, 0]\nclass = AMP", fillcolor="#e58139ff"] ;
483 -> 484 ;
485 [label="gini = 0.0\nsamples = 1\nvalue = [0, 2]\nclass = NAMP", fillcolor="#399de5ff"] ;
483 -> 485 ;
486 [label="PP3 <= 0.2\ngini = 0.04\nsamples = 30\nvalue = [45, 1]\nclass = AMP", fillcolor="#e58139f9"] ;
370 -> 486 ;
487 [label="gini = 0.0\nsamples = 16\nvalue = [28, 0]\nclass = AMP", fillcolor="#e58139ff"] ;
486 -> 487 ;
488 [label="PP3 <= 0.2\ngini = 0.1\nsamples = 14\nvalue = [17, 1]\nclass = AMP", fillcolor="#e58139f0"] ;
486 -> 488 ;
489 [label="gini = 0.0\nsamples = 1\nvalue = [0, 1]\nclass = NAMP", fillcolor="#399de5ff"] ;
488 -> 489 ;
490 [label="gini = 0.0\nsamples = 13\nvalue = [17, 0]\nclass = AMP", fillcolor="#e58139ff"] ;
488 -> 490 ;
491 [label="PP3 <= 0.2\ngini = 0.24\nsamples = 71\nvalue = [102, 17]\nclass = AMP", fillcolor="#e58139d4"] ;
369 -> 491 ;
492 [label="gini = 0.49\nsamples = 6\nvalue = [4, 5]\nclass = NAMP", fillcolor="#399de533"] ;
491 -> 492 ;
493 [label="PP3 <= 0.21\ngini = 0.19\nsamples = 65\nvalue = [98, 12]\nclass = AMP", fillcolor="#e58139e0"] ;
491 -> 493 ;
494 [label="gini = 0.0\nsamples = 15\nvalue = [26, 0]\nclass = AMP", fillcolor="#e58139ff"] ;
493 -> 494 ;
495 [label="PP3 <= 0.21\ngini = 0.24\nsamples = 50\nvalue = [72, 12]\nclass = AMP", fillcolor="#e58139d4"] ;
493 -> 495 ;
496 [label="PP3 <= 0.21\ngini = 0.47\nsamples = 8\nvalue = [10, 6]\nclass = AMP", fillcolor="#e5813966"] ;
495 -> 496 ;
497 [label="PP3 <= 0.21\ngini = 0.35\nsamples = 4\nvalue = [7, 2]\nclass = AMP", fillcolor="#e58139b6"] ;
496 -> 497 ;
498 [label="gini = 0.5\nsamples = 2\nvalue = [2, 2]\nclass = AMP", fillcolor="#e5813900"] ;
497 -> 498 ;
499 [label="gini = 0.0\nsamples = 2\nvalue = [5, 0]\nclass = AMP", fillcolor="#e58139ff"] ;
497 -> 499 ;
500 [label="PP3 <= 0.21\ngini = 0.49\nsamples = 4\nvalue = [3, 4]\nclass = NAMP", fillcolor="#399de540"] ;
496 -> 500 ;
501 [label="gini = 0.0\nsamples = 1\nvalue = [0, 3]\nclass = NAMP", fillcolor="#399de5ff"] ;
500 -> 501 ;
502 [label="PP3 <= 0.21\ngini = 0.38\nsamples = 3\nvalue = [3, 1]\nclass = AMP", fillcolor="#e58139aa"] ;
500 -> 502 ;
503 [label="gini = 0.0\nsamples = 2\nvalue = [3, 0]\nclass = AMP", fillcolor="#e58139ff"] ;
502 -> 503 ;
504 [label="gini = 0.0\nsamples = 1\nvalue = [0, 1]\nclass = NAMP", fillcolor="#399de5ff"] ;
502 -> 504 ;
505 [label="PP3 <= 0.21\ngini = 0.16\nsamples = 42\nvalue = [62, 6]\nclass = AMP", fillcolor="#e58139e6"] ;
495 -> 505 ;
506 [label="PP3 <= 0.21\ngini = 0.22\nsamples = 31\nvalue = [41, 6]\nclass = AMP", fillcolor="#e58139da"] ;
505 -> 506 ;
507 [label="PP3 <= 0.21\ngini = 0.11\nsamples = 23\nvalue = [31, 2]\nclass = AMP", fillcolor="#e58139ef"] ;
506 -> 507 ;
508 [label="PP3 <= 0.21\ngini = 0.23\nsamples = 10\nvalue = [13, 2]\nclass = AMP", fillcolor="#e58139d8"] ;
507 -> 508 ;
509 [label="gini = 0.0\nsamples = 5\nvalue = [8, 0]\nclass = AMP", fillcolor="#e58139ff"] ;
508 -> 509 ;
510 [label="gini = 0.41\nsamples = 5\nvalue = [5, 2]\nclass = AMP", fillcolor="#e5813999"] ;
508 -> 510 ;
511 [label="gini = 0.0\nsamples = 13\nvalue = [18, 0]\nclass = AMP", fillcolor="#e58139ff"] ;
507 -> 511 ;
512 [label="PP3 <= 0.21\ngini = 0.41\nsamples = 8\nvalue = [10, 4]\nclass = AMP", fillcolor="#e5813999"] ;
506 -> 512 ;
513 [label="gini = 0.0\nsamples = 2\nvalue = [0, 3]\nclass = NAMP", fillcolor="#399de5ff"] ;
512 -> 513 ;
514 [label="PP3 <= 0.21\ngini = 0.17\nsamples = 6\nvalue = [10, 1]\nclass = AMP", fillcolor="#e58139e6"] ;
512 -> 514 ;
515 [label="gini = 0.0\nsamples = 4\nvalue = [9, 0]\nclass = AMP", fillcolor="#e58139ff"] ;
514 -> 515 ;
516 [label="gini = 0.5\nsamples = 2\nvalue = [1, 1]\nclass = AMP", fillcolor="#e5813900"] ;
514 -> 516 ;
517 [label="gini = 0.0\nsamples = 11\nvalue = [21, 0]\nclass = AMP", fillcolor="#e58139ff"] ;
505 -> 517 ;
518 [label="gini = 0.0\nsamples = 2\nvalue = [0, 2]\nclass = NAMP", fillcolor="#399de5ff"] ;
360 -> 518 ;
519 [label="gini = 0.0\nsamples = 38\nvalue = [56, 0]\nclass = AMP", fillcolor="#e58139ff"] ;
359 -> 519 ;
520 [label="PP3 <= 0.22\ngini = 0.25\nsamples = 779\nvalue = [1044, 178]\nclass = AMP", fillcolor="#e58139d4"] ;
162 -> 520 ;
521 [label="PP3 <= 0.22\ngini = 0.5\nsamples = 10\nvalue = [9, 8]\nclass = AMP", fillcolor="#e581391c"] ;
520 -> 521 ;
522 [label="PP3 <= 0.22\ngini = 0.44\nsamples = 5\nvalue = [6, 3]\nclass = AMP", fillcolor="#e581397f"] ;
521 -> 522 ;
523 [label="gini = 0.49\nsamples = 3\nvalue = [4, 3]\nclass = AMP", fillcolor="#e5813940"] ;
522 -> 523 ;
524 [label="gini = 0.0\nsamples = 2\nvalue = [2, 0]\nclass = AMP", fillcolor="#e58139ff"] ;
522 -> 524 ;
525 [label="gini = 0.47\nsamples = 5\nvalue = [3, 5]\nclass = NAMP", fillcolor="#399de566"] ;
521 -> 525 ;
526 [label="PP3 <= 0.29\ngini = 0.24\nsamples = 769\nvalue = [1035, 170]\nclass = AMP", fillcolor="#e58139d5"] ;
520 -> 526 ;
527 [label="PP3 <= 0.29\ngini = 0.28\nsamples = 441\nvalue = [582, 117]\nclass = AMP", fillcolor="#e58139cc"] ;
526 -> 527 ;
528 [label="PP3 <= 0.26\ngini = 0.26\nsamples = 432\nvalue = [576, 107]\nclass = AMP", fillcolor="#e58139d0"] ;
527 -> 528 ;
529 [label="PP3 <= 0.24\ngini = 0.21\nsamples = 278\nvalue = [379, 52]\nclass = AMP", fillcolor="#e58139dc"] ;
528 -> 529 ;
530 [label="PP3 <= 0.24\ngini = 0.29\nsamples = 129\nvalue = [168, 36]\nclass = AMP", fillcolor="#e58139c8"] ;
529 -> 530 ;
531 [label="PP3 <= 0.22\ngini = 0.28\nsamples = 127\nvalue = [168, 34]\nclass = AMP", fillcolor="#e58139cb"] ;
530 -> 531 ;
532 [label="gini = 0.0\nsamples = 13\nvalue = [20, 0]\nclass = AMP", fillcolor="#e58139ff"] ;
531 -> 532 ;
533 [label="PP3 <= 0.22\ngini = 0.3\nsamples = 114\nvalue = [148, 34]\nclass = AMP", fillcolor="#e58139c4"] ;
531 -> 533 ;
534 [label="gini = 0.49\nsamples = 4\nvalue = [3, 4]\nclass = NAMP", fillcolor="#399de540"] ;
533 -> 534 ;
535 [label="PP3 <= 0.22\ngini = 0.28\nsamples = 110\nvalue = [145, 30]\nclass = AMP", fillcolor="#e58139ca"] ;
533 -> 535 ;
536 [label="gini = 0.0\nsamples = 10\nvalue = [20, 0]\nclass = AMP", fillcolor="#e58139ff"] ;
535 -> 536 ;
537 [label="PP3 <= 0.23\ngini = 0.31\nsamples = 100\nvalue = [125, 30]\nclass = AMP", fillcolor="#e58139c2"] ;
535 -> 537 ;
538 [label="PP3 <= 0.23\ngini = 0.44\nsamples = 30\nvalue = [32, 16]\nclass = AMP", fillcolor="#e581397f"] ;
537 -> 538 ;
539 [label="PP3 <= 0.22\ngini = 0.31\nsamples = 23\nvalue = [30, 7]\nclass = AMP", fillcolor="#e58139c4"] ;
538 -> 539 ;
540 [label="gini = 0.0\nsamples = 1\nvalue = [0, 2]\nclass = NAMP", fillcolor="#399de5ff"] ;
539 -> 540 ;
541 [label="PP3 <= 0.23\ngini = 0.24\nsamples = 22\nvalue = [30, 5]\nclass = AMP", fillcolor="#e58139d4"] ;
539 -> 541 ;
542 [label="PP3 <= 0.22\ngini = 0.13\nsamples = 19\nvalue = [26, 2]\nclass = AMP", fillcolor="#e58139eb"] ;
541 -> 542 ;
543 [label="gini = 0.0\nsamples = 8\nvalue = [12, 0]\nclass = AMP", fillcolor="#e58139ff"] ;
542 -> 543 ;
544 [label="PP3 <= 0.22\ngini = 0.22\nsamples = 11\nvalue = [14, 2]\nclass = AMP", fillcolor="#e58139db"] ;
542 -> 544 ;
545 [label="gini = 0.5\nsamples = 3\nvalue = [2, 2]\nclass = AMP", fillcolor="#e5813900"] ;
544 -> 545 ;
546 [label="gini = 0.0\nsamples = 8\nvalue = [12, 0]\nclass = AMP", fillcolor="#e58139ff"] ;
544 -> 546 ;
547 [label="PP3 <= 0.23\ngini = 0.49\nsamples = 3\nvalue = [4, 3]\nclass = AMP", fillcolor="#e5813940"] ;
541 -> 547 ;
548 [label="gini = 0.0\nsamples = 1\nvalue = [0, 3]\nclass = NAMP", fillcolor="#399de5ff"] ;
547 -> 548 ;
549 [label="gini = 0.0\nsamples = 2\nvalue = [4, 0]\nclass = AMP", fillcolor="#e58139ff"] ;
547 -> 549 ;
550 [label="gini = 0.3\nsamples = 7\nvalue = [2, 9]\nclass = NAMP", fillcolor="#399de5c6"] ;
538 -> 550 ;
551 [label="PP3 <= 0.23\ngini = 0.23\nsamples = 70\nvalue = [93, 14]\nclass = AMP", fillcolor="#e58139d9"] ;
537 -> 551 ;
552 [label="PP3 <= 0.23\ngini = 0.12\nsamples = 40\nvalue = [59, 4]\nclass = AMP", fillcolor="#e58139ee"] ;
551 -> 552 ;
553 [label="gini = 0.0\nsamples = 17\nvalue = [25, 0]\nclass = AMP", fillcolor="#e58139ff"] ;
552 -> 553 ;
554 [label="PP3 <= 0.23\ngini = 0.19\nsamples = 23\nvalue = [34, 4]\nclass = AMP", fillcolor="#e58139e1"] ;
552 -> 554 ;
555 [label="gini = 0.38\nsamples = 2\nvalue = [1, 3]\nclass = NAMP", fillcolor="#399de5aa"] ;
554 -> 555 ;
556 [label="PP3 <= 0.23\ngini = 0.06\nsamples = 21\nvalue = [33, 1]\nclass = AMP", fillcolor="#e58139f7"] ;
554 -> 556 ;
557 [label="PP3 <= 0.23\ngini = 0.15\nsamples = 7\nvalue = [11, 1]\nclass = AMP", fillcolor="#e58139e8"] ;
556 -> 557 ;
558 [label="gini = 0.0\nsamples = 4\nvalue = [7, 0]\nclass = AMP", fillcolor="#e58139ff"] ;
557 -> 558 ;
559 [label="gini = 0.32\nsamples = 3\nvalue = [4, 1]\nclass = AMP", fillcolor="#e58139bf"] ;
557 -> 559 ;
560 [label="gini = 0.0\nsamples = 14\nvalue = [22, 0]\nclass = AMP", fillcolor="#e58139ff"] ;
556 -> 560 ;
561 [label="PP3 <= 0.23\ngini = 0.35\nsamples = 30\nvalue = [34, 10]\nclass = AMP", fillcolor="#e58139b4"] ;
551 -> 561 ;
562 [label="gini = 0.41\nsamples = 4\nvalue = [2, 5]\nclass = NAMP", fillcolor="#399de599"] ;
561 -> 562 ;
563 [label="PP3 <= 0.23\ngini = 0.23\nsamples = 26\nvalue = [32, 5]\nclass = AMP", fillcolor="#e58139d7"] ;
561 -> 563 ;
564 [label="gini = 0.0\nsamples = 12\nvalue = [14, 0]\nclass = AMP", fillcolor="#e58139ff"] ;
563 -> 564 ;
565 [label="PP3 <= 0.23\ngini = 0.34\nsamples = 14\nvalue = [18, 5]\nclass = AMP", fillcolor="#e58139b8"] ;
563 -> 565 ;
566 [label="gini = 0.0\nsamples = 2\nvalue = [0, 4]\nclass = NAMP", fillcolor="#399de5ff"] ;
565 -> 566 ;
567 [label="PP3 <= 0.23\ngini = 0.1\nsamples = 12\nvalue = [18, 1]\nclass = AMP", fillcolor="#e58139f1"] ;
565 -> 567 ;
568 [label="gini = 0.0\nsamples = 7\nvalue = [10, 0]\nclass = AMP", fillcolor="#e58139ff"] ;
567 -> 568 ;
569 [label="PP3 <= 0.24\ngini = 0.2\nsamples = 5\nvalue = [8, 1]\nclass = AMP", fillcolor="#e58139df"] ;
567 -> 569 ;
570 [label="gini = 0.32\nsamples = 3\nvalue = [4, 1]\nclass = AMP", fillcolor="#e58139bf"] ;
569 -> 570 ;
571 [label="gini = 0.0\nsamples = 2\nvalue = [4, 0]\nclass = AMP", fillcolor="#e58139ff"] ;
569 -> 571 ;
572 [label="gini = 0.0\nsamples = 2\nvalue = [0, 2]\nclass = NAMP", fillcolor="#399de5ff"] ;
530 -> 572 ;
573 [label="PP3 <= 0.25\ngini = 0.13\nsamples = 149\nvalue = [211, 16]\nclass = AMP", fillcolor="#e58139ec"] ;
529 -> 573 ;
574 [label="PP3 <= 0.24\ngini = 0.07\nsamples = 67\nvalue = [109, 4]\nclass = AMP", fillcolor="#e58139f6"] ;
573 -> 574 ;
575 [label="PP3 <= 0.24\ngini = 0.14\nsamples = 31\nvalue = [50, 4]\nclass = AMP", fillcolor="#e58139eb"] ;
574 -> 575 ;
576 [label="gini = 0.0\nsamples = 17\nvalue = [31, 0]\nclass = AMP", fillcolor="#e58139ff"] ;
575 -> 576 ;
577 [label="PP3 <= 0.24\ngini = 0.29\nsamples = 14\nvalue = [19, 4]\nclass = AMP", fillcolor="#e58139c9"] ;
575 -> 577 ;
578 [label="gini = 0.0\nsamples = 2\nvalue = [0, 3]\nclass = NAMP", fillcolor="#399de5ff"] ;
577 -> 578 ;
579 [label="PP3 <= 0.24\ngini = 0.09\nsamples = 12\nvalue = [19, 1]\nclass = AMP", fillcolor="#e58139f2"] ;
577 -> 579 ;
580 [label="gini = 0.0\nsamples = 8\nvalue = [12, 0]\nclass = AMP", fillcolor="#e58139ff"] ;
579 -> 580 ;
581 [label="gini = 0.22\nsamples = 4\nvalue = [7, 1]\nclass = AMP", fillcolor="#e58139db"] ;
579 -> 581 ;
582 [label="gini = 0.0\nsamples = 36\nvalue = [59, 0]\nclass = AMP", fillcolor="#e58139ff"] ;
574 -> 582 ;
583 [label="PP3 <= 0.25\ngini = 0.19\nsamples = 82\nvalue = [102, 12]\nclass = AMP", fillcolor="#e58139e1"] ;
573 -> 583 ;
584 [label="gini = 0.0\nsamples = 2\nvalue = [0, 2]\nclass = NAMP", fillcolor="#399de5ff"] ;
583 -> 584 ;
585 [label="PP3 <= 0.25\ngini = 0.16\nsamples = 80\nvalue = [102, 10]\nclass = AMP", fillcolor="#e58139e6"] ;
583 -> 585 ;
586 [label="PP3 <= 0.25\ngini = 0.25\nsamples = 43\nvalue = [52, 9]\nclass = AMP", fillcolor="#e58139d3"] ;
585 -> 586 ;
587 [label="PP3 <= 0.25\ngini = 0.18\nsamples = 36\nvalue = [45, 5]\nclass = AMP", fillcolor="#e58139e3"] ;
586 -> 587 ;
588 [label="gini = 0.0\nsamples = 10\nvalue = [14, 0]\nclass = AMP", fillcolor="#e58139ff"] ;
587 -> 588 ;
589 [label="PP3 <= 0.25\ngini = 0.24\nsamples = 26\nvalue = [31, 5]\nclass = AMP", fillcolor="#e58139d6"] ;
587 -> 589 ;
590 [label="gini = 0.38\nsamples = 2\nvalue = [1, 3]\nclass = NAMP", fillcolor="#399de5aa"] ;
589 -> 590 ;
591 [label="PP3 <= 0.25\ngini = 0.12\nsamples = 24\nvalue = [30, 2]\nclass = AMP", fillcolor="#e58139ee"] ;
589 -> 591 ;
592 [label="PP3 <= 0.25\ngini = 0.16\nsamples = 18\nvalue = [21, 2]\nclass = AMP", fillcolor="#e58139e7"] ;
591 -> 592 ;
593 [label="gini = 0.0\nsamples = 6\nvalue = [7, 0]\nclass = AMP", fillcolor="#e58139ff"] ;
592 -> 593 ;
594 [label="PP3 <= 0.25\ngini = 0.22\nsamples = 12\nvalue = [14, 2]\nclass = AMP", fillcolor="#e58139db"] ;
592 -> 594 ;
595 [label="gini = 0.0\nsamples = 1\nvalue = [0, 1]\nclass = NAMP", fillcolor="#399de5ff"] ;
594 -> 595 ;
596 [label="PP3 <= 0.25\ngini = 0.12\nsamples = 11\nvalue = [14, 1]\nclass = AMP", fillcolor="#e58139ed"] ;
594 -> 596 ;
597 [label="gini = 0.0\nsamples = 7\nvalue = [9, 0]\nclass = AMP", fillcolor="#e58139ff"] ;
596 -> 597 ;
598 [label="gini = 0.28\nsamples = 4\nvalue = [5, 1]\nclass = AMP", fillcolor="#e58139cc"] ;
596 -> 598 ;
599 [label="gini = 0.0\nsamples = 6\nvalue = [9, 0]\nclass = AMP", fillcolor="#e58139ff"] ;
591 -> 599 ;
600 [label="gini = 0.46\nsamples = 7\nvalue = [7, 4]\nclass = AMP", fillcolor="#e581396d"] ;
586 -> 600 ;
601 [label="PP3 <= 0.25\ngini = 0.04\nsamples = 37\nvalue = [50, 1]\nclass = AMP", fillcolor="#e58139fa"] ;
585 -> 601 ;
602 [label="PP3 <= 0.25\ngini = 0.11\nsamples = 12\nvalue = [16, 1]\nclass = AMP", fillcolor="#e58139ef"] ;
601 -> 602 ;
603 [label="gini = 0.0\nsamples = 11\nvalue = [16, 0]\nclass = AMP", fillcolor="#e58139ff"] ;
602 -> 603 ;
604 [label="gini = 0.0\nsamples = 1\nvalue = [0, 1]\nclass = NAMP", fillcolor="#399de5ff"] ;
602 -> 604 ;
605 [label="gini = 0.0\nsamples = 25\nvalue = [34, 0]\nclass = AMP", fillcolor="#e58139ff"] ;
601 -> 605 ;
606 [label="PP3 <= 0.26\ngini = 0.34\nsamples = 154\nvalue = [197, 55]\nclass = AMP", fillcolor="#e58139b8"] ;
528 -> 606 ;
607 [label="PP3 <= 0.26\ngini = 0.5\nsamples = 27\nvalue = [21, 24]\nclass = NAMP", fillcolor="#399de520"] ;
606 -> 607 ;
608 [label="gini = 0.0\nsamples = 2\nvalue = [0, 5]\nclass = NAMP", fillcolor="#399de5ff"] ;
607 -> 608 ;
609 [label="PP3 <= 0.26\ngini = 0.5\nsamples = 25\nvalue = [21, 19]\nclass = AMP", fillcolor="#e5813918"] ;
607 -> 609 ;
610 [label="PP3 <= 0.26\ngini = 0.18\nsamples = 7\nvalue = [9, 1]\nclass = AMP", fillcolor="#e58139e3"] ;
609 -> 610 ;
611 [label="gini = 0.0\nsamples = 5\nvalue = [5, 0]\nclass = AMP", fillcolor="#e58139ff"] ;
610 -> 611 ;
612 [label="PP3 <= 0.26\ngini = 0.32\nsamples = 2\nvalue = [4, 1]\nclass = AMP", fillcolor="#e58139bf"] ;
610 -> 612 ;
613 [label="gini = 0.0\nsamples = 1\nvalue = [0, 1]\nclass = NAMP", fillcolor="#399de5ff"] ;
612 -> 613 ;
614 [label="gini = 0.0\nsamples = 1\nvalue = [4, 0]\nclass = AMP", fillcolor="#e58139ff"] ;
612 -> 614 ;
615 [label="PP3 <= 0.26\ngini = 0.48\nsamples = 18\nvalue = [12, 18]\nclass = NAMP", fillcolor="#399de555"] ;
609 -> 615 ;
616 [label="PP3 <= 0.26\ngini = 0.5\nsamples = 10\nvalue = [6, 6]\nclass = AMP", fillcolor="#e5813900"] ;
615 -> 616 ;
617 [label="gini = 0.44\nsamples = 7\nvalue = [3, 6]\nclass = NAMP", fillcolor="#399de57f"] ;
616 -> 617 ;
618 [label="gini = 0.0\nsamples = 3\nvalue = [3, 0]\nclass = AMP", fillcolor="#e58139ff"] ;
616 -> 618 ;
619 [label="PP3 <= 0.26\ngini = 0.44\nsamples = 8\nvalue = [6, 12]\nclass = NAMP", fillcolor="#399de57f"] ;
615 -> 619 ;
620 [label="gini = 0.0\nsamples = 1\nvalue = [0, 1]\nclass = NAMP", fillcolor="#399de5ff"] ;
619 -> 620 ;
621 [label="gini = 0.46\nsamples = 7\nvalue = [6, 11]\nclass = NAMP", fillcolor="#399de574"] ;
619 -> 621 ;
622 [label="PP3 <= 0.27\ngini = 0.25\nsamples = 127\nvalue = [176, 31]\nclass = AMP", fillcolor="#e58139d2"] ;
606 -> 622 ;
623 [label="PP3 <= 0.26\ngini = 0.12\nsamples = 73\nvalue = [113, 8]\nclass = AMP", fillcolor="#e58139ed"] ;
622 -> 623 ;
624 [label="PP3 <= 0.26\ngini = 0.23\nsamples = 21\nvalue = [32, 5]\nclass = AMP", fillcolor="#e58139d7"] ;
623 -> 624 ;
625 [label="PP3 <= 0.26\ngini = 0.11\nsamples = 18\nvalue = [31, 2]\nclass = AMP", fillcolor="#e58139ef"] ;
624 -> 625 ;
626 [label="PP3 <= 0.26\ngini = 0.35\nsamples = 5\nvalue = [7, 2]\nclass = AMP", fillcolor="#e58139b6"] ;
625 -> 626 ;
627 [label="gini = 0.0\nsamples = 2\nvalue = [3, 0]\nclass = AMP", fillcolor="#e58139ff"] ;
626 -> 627 ;
628 [label="gini = 0.44\nsamples = 3\nvalue = [4, 2]\nclass = AMP", fillcolor="#e581397f"] ;
626 -> 628 ;
629 [label="gini = 0.0\nsamples = 13\nvalue = [24, 0]\nclass = AMP", fillcolor="#e58139ff"] ;
625 -> 629 ;
630 [label="gini = 0.38\nsamples = 3\nvalue = [1, 3]\nclass = NAMP", fillcolor="#399de5aa"] ;
624 -> 630 ;
631 [label="PP3 <= 0.27\ngini = 0.07\nsamples = 52\nvalue = [81, 3]\nclass = AMP", fillcolor="#e58139f6"] ;
623 -> 631 ;
632 [label="gini = 0.0\nsamples = 38\nvalue = [57, 0]\nclass = AMP", fillcolor="#e58139ff"] ;
631 -> 632 ;
633 [label="PP3 <= 0.27\ngini = 0.2\nsamples = 14\nvalue = [24, 3]\nclass = AMP", fillcolor="#e58139df"] ;
631 -> 633 ;
634 [label="gini = 0.0\nsamples = 1\nvalue = [0, 3]\nclass = NAMP", fillcolor="#399de5ff"] ;
633 -> 634 ;
635 [label="gini = 0.0\nsamples = 13\nvalue = [24, 0]\nclass = AMP", fillcolor="#e58139ff"] ;
633 -> 635 ;
636 [label="PP3 <= 0.28\ngini = 0.39\nsamples = 54\nvalue = [63, 23]\nclass = AMP", fillcolor="#e58139a2"] ;
622 -> 636 ;
637 [label="PP3 <= 0.28\ngini = 0.48\nsamples = 35\nvalue = [33, 21]\nclass = AMP", fillcolor="#e581395d"] ;
636 -> 637 ;
638 [label="PP3 <= 0.28\ngini = 0.46\nsamples = 33\nvalue = [33, 19]\nclass = AMP", fillcolor="#e581396c"] ;
637 -> 638 ;
639 [label="PP3 <= 0.28\ngini = 0.48\nsamples = 29\nvalue = [28, 19]\nclass = AMP", fillcolor="#e5813952"] ;
638 -> 639 ;
640 [label="PP3 <= 0.28\ngini = 0.44\nsamples = 26\nvalue = [28, 14]\nclass = AMP", fillcolor="#e581397f"] ;
639 -> 640 ;
641 [label="PP3 <= 0.28\ngini = 0.49\nsamples = 20\nvalue = [19, 14]\nclass = AMP", fillcolor="#e5813943"] ;
640 -> 641 ;
642 [label="PP3 <= 0.28\ngini = 0.46\nsamples = 18\nvalue = [19, 11]\nclass = AMP", fillcolor="#e581396b"] ;
641 -> 642 ;
643 [label="PP3 <= 0.27\ngini = 0.34\nsamples = 9\nvalue = [11, 3]\nclass = AMP", fillcolor="#e58139b9"] ;
642 -> 643 ;
644 [label="gini = 0.44\nsamples = 2\nvalue = [1, 2]\nclass = NAMP", fillcolor="#399de57f"] ;
643 -> 644 ;
645 [label="PP3 <= 0.28\ngini = 0.17\nsamples = 7\nvalue = [10, 1]\nclass = AMP", fillcolor="#e58139e6"] ;
643 -> 645 ;
646 [label="PP3 <= 0.28\ngini = 0.32\nsamples = 3\nvalue = [4, 1]\nclass = AMP", fillcolor="#e58139bf"] ;
645 -> 646 ;
647 [label="gini = 0.0\nsamples = 2\nvalue = [4, 0]\nclass = AMP", fillcolor="#e58139ff"] ;
646 -> 647 ;
648 [label="gini = 0.0\nsamples = 1\nvalue = [0, 1]\nclass = NAMP", fillcolor="#399de5ff"] ;
646 -> 648 ;
649 [label="gini = 0.0\nsamples = 4\nvalue = [6, 0]\nclass = AMP", fillcolor="#e58139ff"] ;
645 -> 649 ;
650 [label="PP3 <= 0.28\ngini = 0.5\nsamples = 9\nvalue = [8, 8]\nclass = AMP", fillcolor="#e5813900"] ;
642 -> 650 ;
651 [label="gini = 0.0\nsamples = 2\nvalue = [0, 4]\nclass = NAMP", fillcolor="#399de5ff"] ;
650 -> 651 ;
652 [label="PP3 <= 0.28\ngini = 0.44\nsamples = 7\nvalue = [8, 4]\nclass = AMP", fillcolor="#e581397f"] ;
650 -> 652 ;
653 [label="gini = 0.0\nsamples = 3\nvalue = [5, 0]\nclass = AMP", fillcolor="#e58139ff"] ;
652 -> 653 ;
654 [label="PP3 <= 0.28\ngini = 0.49\nsamples = 4\nvalue = [3, 4]\nclass = NAMP", fillcolor="#399de540"] ;
652 -> 654 ;
655 [label="gini = 0.0\nsamples = 3\nvalue = [0, 4]\nclass = NAMP", fillcolor="#399de5ff"] ;
654 -> 655 ;
656 [label="gini = 0.0\nsamples = 1\nvalue = [3, 0]\nclass = AMP", fillcolor="#e58139ff"] ;
654 -> 656 ;
657 [label="gini = 0.0\nsamples = 2\nvalue = [0, 3]\nclass = NAMP", fillcolor="#399de5ff"] ;
641 -> 657 ;
658 [label="gini = 0.0\nsamples = 6\nvalue = [9, 0]\nclass = AMP", fillcolor="#e58139ff"] ;
640 -> 658 ;
659 [label="gini = 0.0\nsamples = 3\nvalue = [0, 5]\nclass = NAMP", fillcolor="#399de5ff"] ;
639 -> 659 ;
660 [label="gini = 0.0\nsamples = 4\nvalue = [5, 0]\nclass = AMP", fillcolor="#e58139ff"] ;
638 -> 660 ;
661 [label="gini = 0.0\nsamples = 2\nvalue = [0, 2]\nclass = NAMP", fillcolor="#399de5ff"] ;
637 -> 661 ;
662 [label="PP3 <= 0.28\ngini = 0.12\nsamples = 19\nvalue = [30, 2]\nclass = AMP", fillcolor="#e58139ee"] ;
636 -> 662 ;
663 [label="gini = 0.0\nsamples = 8\nvalue = [12, 0]\nclass = AMP", fillcolor="#e58139ff"] ;
662 -> 663 ;
664 [label="PP3 <= 0.28\ngini = 0.18\nsamples = 11\nvalue = [18, 2]\nclass = AMP", fillcolor="#e58139e3"] ;
662 -> 664 ;
665 [label="gini = 0.0\nsamples = 1\nvalue = [0, 1]\nclass = NAMP", fillcolor="#399de5ff"] ;
664 -> 665 ;
666 [label="PP3 <= 0.29\ngini = 0.1\nsamples = 10\nvalue = [18, 1]\nclass = AMP", fillcolor="#e58139f1"] ;
664 -> 666 ;
667 [label="PP3 <= 0.29\ngini = 0.24\nsamples = 5\nvalue = [6, 1]\nclass = AMP", fillcolor="#e58139d4"] ;
666 -> 667 ;
668 [label="gini = 0.0\nsamples = 4\nvalue = [6, 0]\nclass = AMP", fillcolor="#e58139ff"] ;
667 -> 668 ;
669 [label="gini = 0.0\nsamples = 1\nvalue = [0, 1]\nclass = NAMP", fillcolor="#399de5ff"] ;
667 -> 669 ;
670 [label="gini = 0.0\nsamples = 5\nvalue = [12, 0]\nclass = AMP", fillcolor="#e58139ff"] ;
666 -> 670 ;
671 [label="PP3 <= 0.29\ngini = 0.47\nsamples = 9\nvalue = [6, 10]\nclass = NAMP", fillcolor="#399de566"] ;
527 -> 671 ;
672 [label="PP3 <= 0.29\ngini = 0.5\nsamples = 8\nvalue = [6, 7]\nclass = NAMP", fillcolor="#399de524"] ;
671 -> 672 ;
673 [label="gini = 0.5\nsamples = 5\nvalue = [5, 5]\nclass = AMP", fillcolor="#e5813900"] ;
672 -> 673 ;
674 [label="gini = 0.44\nsamples = 3\nvalue = [1, 2]\nclass = NAMP", fillcolor="#399de57f"] ;
672 -> 674 ;
675 [label="gini = 0.0\nsamples = 1\nvalue = [0, 3]\nclass = NAMP", fillcolor="#399de5ff"] ;
671 -> 675 ;
676 [label="PP3 <= 0.29\ngini = 0.19\nsamples = 328\nvalue = [453, 53]\nclass = AMP", fillcolor="#e58139e1"] ;
526 -> 676 ;
677 [label="gini = 0.0\nsamples = 31\nvalue = [49, 0]\nclass = AMP", fillcolor="#e58139ff"] ;
676 -> 677 ;
678 [label="PP3 <= 0.3\ngini = 0.21\nsamples = 297\nvalue = [404, 53]\nclass = AMP", fillcolor="#e58139de"] ;
676 -> 678 ;
679 [label="PP3 <= 0.3\ngini = 0.36\nsamples = 17\nvalue = [19, 6]\nclass = AMP", fillcolor="#e58139ae"] ;
678 -> 679 ;
680 [label="PP3 <= 0.29\ngini = 0.21\nsamples = 12\nvalue = [15, 2]\nclass = AMP", fillcolor="#e58139dd"] ;
679 -> 680 ;
681 [label="gini = 0.44\nsamples = 3\nvalue = [2, 1]\nclass = AMP", fillcolor="#e581397f"] ;
680 -> 681 ;
682 [label="PP3 <= 0.3\ngini = 0.13\nsamples = 9\nvalue = [13, 1]\nclass = AMP", fillcolor="#e58139eb"] ;
680 -> 682 ;
683 [label="gini = 0.0\nsamples = 6\nvalue = [9, 0]\nclass = AMP", fillcolor="#e58139ff"] ;
682 -> 683 ;
684 [label="gini = 0.32\nsamples = 3\nvalue = [4, 1]\nclass = AMP", fillcolor="#e58139bf"] ;
682 -> 684 ;
685 [label="PP3 <= 0.3\ngini = 0.5\nsamples = 5\nvalue = [4, 4]\nclass = AMP", fillcolor="#e5813900"] ;
679 -> 685 ;
686 [label="gini = 0.38\nsamples = 2\nvalue = [1, 3]\nclass = NAMP", fillcolor="#399de5aa"] ;
685 -> 686 ;
687 [label="PP3 <= 0.3\ngini = 0.38\nsamples = 3\nvalue = [3, 1]\nclass = AMP", fillcolor="#e58139aa"] ;
685 -> 687 ;
688 [label="gini = 0.0\nsamples = 2\nvalue = [3, 0]\nclass = AMP", fillcolor="#e58139ff"] ;
687 -> 688 ;
689 [label="gini = 0.0\nsamples = 1\nvalue = [0, 1]\nclass = NAMP", fillcolor="#399de5ff"] ;
687 -> 689 ;
690 [label="PP3 <= 0.35\ngini = 0.19\nsamples = 280\nvalue = [385, 47]\nclass = AMP", fillcolor="#e58139e0"] ;
678 -> 690 ;
691 [label="PP3 <= 0.33\ngini = 0.15\nsamples = 169\nvalue = [244, 22]\nclass = AMP", fillcolor="#e58139e8"] ;
690 -> 691 ;
692 [label="PP3 <= 0.33\ngini = 0.22\nsamples = 102\nvalue = [135, 20]\nclass = AMP", fillcolor="#e58139d9"] ;
691 -> 692 ;
693 [label="PP3 <= 0.32\ngini = 0.18\nsamples = 97\nvalue = [133, 15]\nclass = AMP", fillcolor="#e58139e2"] ;
692 -> 693 ;
694 [label="PP3 <= 0.32\ngini = 0.23\nsamples = 74\nvalue = [100, 15]\nclass = AMP", fillcolor="#e58139d9"] ;
693 -> 694 ;
695 [label="PP3 <= 0.31\ngini = 0.15\nsamples = 71\nvalue = [99, 9]\nclass = AMP", fillcolor="#e58139e8"] ;
694 -> 695 ;
696 [label="PP3 <= 0.3\ngini = 0.08\nsamples = 45\nvalue = [66, 3]\nclass = AMP", fillcolor="#e58139f3"] ;
695 -> 696 ;
697 [label="gini = 0.0\nsamples = 16\nvalue = [24, 0]\nclass = AMP", fillcolor="#e58139ff"] ;
696 -> 697 ;
698 [label="PP3 <= 0.3\ngini = 0.12\nsamples = 29\nvalue = [42, 3]\nclass = AMP", fillcolor="#e58139ed"] ;
696 -> 698 ;
699 [label="gini = 0.0\nsamples = 1\nvalue = [0, 2]\nclass = NAMP", fillcolor="#399de5ff"] ;
698 -> 699 ;
700 [label="PP3 <= 0.31\ngini = 0.05\nsamples = 28\nvalue = [42, 1]\nclass = AMP", fillcolor="#e58139f9"] ;
698 -> 700 ;
701 [label="gini = 0.0\nsamples = 19\nvalue = [30, 0]\nclass = AMP", fillcolor="#e58139ff"] ;
700 -> 701 ;
702 [label="PP3 <= 0.31\ngini = 0.14\nsamples = 9\nvalue = [12, 1]\nclass = AMP", fillcolor="#e58139ea"] ;
700 -> 702 ;
703 [label="gini = 0.0\nsamples = 1\nvalue = [0, 1]\nclass = NAMP", fillcolor="#399de5ff"] ;
702 -> 703 ;
704 [label="gini = 0.0\nsamples = 8\nvalue = [12, 0]\nclass = AMP", fillcolor="#e58139ff"] ;
702 -> 704 ;
705 [label="PP3 <= 0.31\ngini = 0.26\nsamples = 26\nvalue = [33, 6]\nclass = AMP", fillcolor="#e58139d1"] ;
695 -> 705 ;
706 [label="gini = 0.0\nsamples = 2\nvalue = [0, 2]\nclass = NAMP", fillcolor="#399de5ff"] ;
705 -> 706 ;
707 [label="PP3 <= 0.32\ngini = 0.19\nsamples = 24\nvalue = [33, 4]\nclass = AMP", fillcolor="#e58139e0"] ;
705 -> 707 ;
708 [label="PP3 <= 0.31\ngini = 0.31\nsamples = 16\nvalue = [17, 4]\nclass = AMP", fillcolor="#e58139c3"] ;
707 -> 708 ;
709 [label="gini = 0.0\nsamples = 9\nvalue = [12, 0]\nclass = AMP", fillcolor="#e58139ff"] ;
708 -> 709 ;
710 [label="PP3 <= 0.32\ngini = 0.49\nsamples = 7\nvalue = [5, 4]\nclass = AMP", fillcolor="#e5813933"] ;
708 -> 710 ;
711 [label="gini = 0.38\nsamples = 3\nvalue = [1, 3]\nclass = NAMP", fillcolor="#399de5aa"] ;
710 -> 711 ;
712 [label="PP3 <= 0.32\ngini = 0.32\nsamples = 4\nvalue = [4, 1]\nclass = AMP", fillcolor="#e58139bf"] ;
710 -> 712 ;
713 [label="gini = 0.0\nsamples = 2\nvalue = [2, 0]\nclass = AMP", fillcolor="#e58139ff"] ;
712 -> 713 ;
714 [label="gini = 0.44\nsamples = 2\nvalue = [2, 1]\nclass = AMP", fillcolor="#e581397f"] ;
712 -> 714 ;
715 [label="gini = 0.0\nsamples = 8\nvalue = [16, 0]\nclass = AMP", fillcolor="#e58139ff"] ;
707 -> 715 ;
716 [label="gini = 0.24\nsamples = 3\nvalue = [1, 6]\nclass = NAMP", fillcolor="#399de5d4"] ;
694 -> 716 ;
717 [label="gini = 0.0\nsamples = 23\nvalue = [33, 0]\nclass = AMP", fillcolor="#e58139ff"] ;
693 -> 717 ;
718 [label="PP3 <= 0.33\ngini = 0.41\nsamples = 5\nvalue = [2, 5]\nclass = NAMP", fillcolor="#399de599"] ;
692 -> 718 ;
719 [label="gini = 0.0\nsamples = 2\nvalue = [0, 3]\nclass = NAMP", fillcolor="#399de5ff"] ;
718 -> 719 ;
720 [label="PP3 <= 0.33\ngini = 0.5\nsamples = 3\nvalue = [2, 2]\nclass = AMP", fillcolor="#e5813900"] ;
718 -> 720 ;
721 [label="gini = 0.0\nsamples = 1\nvalue = [1, 0]\nclass = AMP", fillcolor="#e58139ff"] ;
720 -> 721 ;
722 [label="gini = 0.44\nsamples = 2\nvalue = [1, 2]\nclass = NAMP", fillcolor="#399de57f"] ;
720 -> 722 ;
723 [label="PP3 <= 0.34\ngini = 0.04\nsamples = 67\nvalue = [109, 2]\nclass = AMP", fillcolor="#e58139fa"] ;
691 -> 723 ;
724 [label="gini = 0.0\nsamples = 43\nvalue = [74, 0]\nclass = AMP", fillcolor="#e58139ff"] ;
723 -> 724 ;
725 [label="PP3 <= 0.34\ngini = 0.1\nsamples = 24\nvalue = [35, 2]\nclass = AMP", fillcolor="#e58139f0"] ;
723 -> 725 ;
726 [label="PP3 <= 0.34\ngini = 0.32\nsamples = 6\nvalue = [8, 2]\nclass = AMP", fillcolor="#e58139bf"] ;
725 -> 726 ;
727 [label="gini = 0.38\nsamples = 3\nvalue = [3, 1]\nclass = AMP", fillcolor="#e58139aa"] ;
726 -> 727 ;
728 [label="gini = 0.28\nsamples = 3\nvalue = [5, 1]\nclass = AMP", fillcolor="#e58139cc"] ;
726 -> 728 ;
729 [label="gini = 0.0\nsamples = 18\nvalue = [27, 0]\nclass = AMP", fillcolor="#e58139ff"] ;
725 -> 729 ;
730 [label="PP3 <= 0.35\ngini = 0.26\nsamples = 111\nvalue = [141, 25]\nclass = AMP", fillcolor="#e58139d2"] ;
690 -> 730 ;
731 [label="PP3 <= 0.35\ngini = 0.47\nsamples = 25\nvalue = [24, 14]\nclass = AMP", fillcolor="#e581396a"] ;
730 -> 731 ;
732 [label="PP3 <= 0.35\ngini = 0.38\nsamples = 19\nvalue = [21, 7]\nclass = AMP", fillcolor="#e58139aa"] ;
731 -> 732 ;
733 [label="gini = 0.0\nsamples = 2\nvalue = [0, 2]\nclass = NAMP", fillcolor="#399de5ff"] ;
732 -> 733 ;
734 [label="PP3 <= 0.35\ngini = 0.31\nsamples = 17\nvalue = [21, 5]\nclass = AMP", fillcolor="#e58139c2"] ;
732 -> 734 ;
735 [label="PP3 <= 0.35\ngini = 0.43\nsamples = 12\nvalue = [11, 5]\nclass = AMP", fillcolor="#e581398b"] ;
734 -> 735 ;
736 [label="PP3 <= 0.35\ngini = 0.3\nsamples = 7\nvalue = [9, 2]\nclass = AMP", fillcolor="#e58139c6"] ;
735 -> 736 ;
737 [label="gini = 0.44\nsamples = 3\nvalue = [2, 1]\nclass = AMP", fillcolor="#e581397f"] ;
736 -> 737 ;
738 [label="PP3 <= 0.35\ngini = 0.22\nsamples = 4\nvalue = [7, 1]\nclass = AMP", fillcolor="#e58139db"] ;
736 -> 738 ;
739 [label="gini = 0.0\nsamples = 1\nvalue = [1, 0]\nclass = AMP", fillcolor="#e58139ff"] ;
738 -> 739 ;
740 [label="gini = 0.24\nsamples = 3\nvalue = [6, 1]\nclass = AMP", fillcolor="#e58139d4"] ;
738 -> 740 ;
741 [label="gini = 0.48\nsamples = 5\nvalue = [2, 3]\nclass = NAMP", fillcolor="#399de555"] ;
735 -> 741 ;
742 [label="gini = 0.0\nsamples = 5\nvalue = [10, 0]\nclass = AMP", fillcolor="#e58139ff"] ;
734 -> 742 ;
743 [label="PP3 <= 0.35\ngini = 0.42\nsamples = 6\nvalue = [3, 7]\nclass = NAMP", fillcolor="#399de592"] ;
731 -> 743 ;
744 [label="gini = 0.0\nsamples = 2\nvalue = [0, 4]\nclass = NAMP", fillcolor="#399de5ff"] ;
743 -> 744 ;
745 [label="PP3 <= 0.35\ngini = 0.5\nsamples = 4\nvalue = [3, 3]\nclass = AMP", fillcolor="#e5813900"] ;
743 -> 745 ;
746 [label="PP3 <= 0.35\ngini = 0.38\nsamples = 3\nvalue = [3, 1]\nclass = AMP", fillcolor="#e58139aa"] ;
745 -> 746 ;
747 [label="PP3 <= 0.35\ngini = 0.5\nsamples = 2\nvalue = [1, 1]\nclass = AMP", fillcolor="#e5813900"] ;
746 -> 747 ;
748 [label="gini = 0.0\nsamples = 1\nvalue = [1, 0]\nclass = AMP", fillcolor="#e58139ff"] ;
747 -> 748 ;
749 [label="gini = 0.0\nsamples = 1\nvalue = [0, 1]\nclass = NAMP", fillcolor="#399de5ff"] ;
747 -> 749 ;
750 [label="gini = 0.0\nsamples = 1\nvalue = [2, 0]\nclass = AMP", fillcolor="#e58139ff"] ;
746 -> 750 ;
751 [label="gini = 0.0\nsamples = 1\nvalue = [0, 2]\nclass = NAMP", fillcolor="#399de5ff"] ;
745 -> 751 ;
752 [label="PP3 <= 0.37\ngini = 0.16\nsamples = 86\nvalue = [117, 11]\nclass = AMP", fillcolor="#e58139e7"] ;
730 -> 752 ;
753 [label="PP3 <= 0.36\ngini = 0.11\nsamples = 67\nvalue = [92, 6]\nclass = AMP", fillcolor="#e58139ee"] ;
752 -> 753 ;
754 [label="PP3 <= 0.36\ngini = 0.21\nsamples = 20\nvalue = [22, 3]\nclass = AMP", fillcolor="#e58139dc"] ;
753 -> 754 ;
755 [label="gini = 0.0\nsamples = 13\nvalue = [17, 0]\nclass = AMP", fillcolor="#e58139ff"] ;
754 -> 755 ;
756 [label="PP3 <= 0.36\ngini = 0.47\nsamples = 7\nvalue = [5, 3]\nclass = AMP", fillcolor="#e5813966"] ;
754 -> 756 ;
757 [label="gini = 0.0\nsamples = 2\nvalue = [0, 2]\nclass = NAMP", fillcolor="#399de5ff"] ;
756 -> 757 ;
758 [label="PP3 <= 0.36\ngini = 0.28\nsamples = 5\nvalue = [5, 1]\nclass = AMP", fillcolor="#e58139cc"] ;
756 -> 758 ;
759 [label="gini = 0.0\nsamples = 1\nvalue = [2, 0]\nclass = AMP", fillcolor="#e58139ff"] ;
758 -> 759 ;
760 [label="gini = 0.38\nsamples = 4\nvalue = [3, 1]\nclass = AMP", fillcolor="#e58139aa"] ;
758 -> 760 ;
761 [label="PP3 <= 0.36\ngini = 0.08\nsamples = 47\nvalue = [70, 3]\nclass = AMP", fillcolor="#e58139f4"] ;
753 -> 761 ;
762 [label="gini = 0.0\nsamples = 20\nvalue = [31, 0]\nclass = AMP", fillcolor="#e58139ff"] ;
761 -> 762 ;
763 [label="PP3 <= 0.36\ngini = 0.13\nsamples = 27\nvalue = [39, 3]\nclass = AMP", fillcolor="#e58139eb"] ;
761 -> 763 ;
764 [label="gini = 0.0\nsamples = 1\nvalue = [0, 1]\nclass = NAMP", fillcolor="#399de5ff"] ;
763 -> 764 ;
765 [label="PP3 <= 0.37\ngini = 0.09\nsamples = 26\nvalue = [39, 2]\nclass = AMP", fillcolor="#e58139f2"] ;
763 -> 765 ;
766 [label="PP3 <= 0.37\ngini = 0.14\nsamples = 16\nvalue = [24, 2]\nclass = AMP", fillcolor="#e58139ea"] ;
765 -> 766 ;
767 [label="PP3 <= 0.36\ngini = 0.08\nsamples = 15\nvalue = [24, 1]\nclass = AMP", fillcolor="#e58139f4"] ;
766 -> 767 ;
768 [label="gini = 0.0\nsamples = 7\nvalue = [12, 0]\nclass = AMP", fillcolor="#e58139ff"] ;
767 -> 768 ;
769 [label="PP3 <= 0.37\ngini = 0.14\nsamples = 8\nvalue = [12, 1]\nclass = AMP", fillcolor="#e58139ea"] ;
767 -> 769 ;
770 [label="gini = 0.5\nsamples = 2\nvalue = [1, 1]\nclass = AMP", fillcolor="#e5813900"] ;
769 -> 770 ;
771 [label="gini = 0.0\nsamples = 6\nvalue = [11, 0]\nclass = AMP", fillcolor="#e58139ff"] ;
769 -> 771 ;
772 [label="gini = 0.0\nsamples = 1\nvalue = [0, 1]\nclass = NAMP", fillcolor="#399de5ff"] ;
766 -> 772 ;
773 [label="gini = 0.0\nsamples = 10\nvalue = [15, 0]\nclass = AMP", fillcolor="#e58139ff"] ;
765 -> 773 ;
774 [label="PP3 <= 0.37\ngini = 0.28\nsamples = 19\nvalue = [25, 5]\nclass = AMP", fillcolor="#e58139cc"] ;
752 -> 774 ;
775 [label="gini = 0.0\nsamples = 1\nvalue = [0, 2]\nclass = NAMP", fillcolor="#399de5ff"] ;
774 -> 775 ;
776 [label="PP3 <= 0.37\ngini = 0.19\nsamples = 18\nvalue = [25, 3]\nclass = AMP", fillcolor="#e58139e0"] ;
774 -> 776 ;
777 [label="PP3 <= 0.37\ngini = 0.42\nsamples = 7\nvalue = [7, 3]\nclass = AMP", fillcolor="#e5813992"] ;
776 -> 777 ;
778 [label="gini = 0.0\nsamples = 5\nvalue = [7, 0]\nclass = AMP", fillcolor="#e58139ff"] ;
777 -> 778 ;
779 [label="gini = 0.0\nsamples = 2\nvalue = [0, 3]\nclass = NAMP", fillcolor="#399de5ff"] ;
777 -> 779 ;
780 [label="gini = 0.0\nsamples = 11\nvalue = [18, 0]\nclass = AMP", fillcolor="#e58139ff"] ;
776 -> 780 ;
781 [label="PP3 <= 0.4\ngini = 0.36\nsamples = 172\nvalue = [222, 68]\nclass = AMP", fillcolor="#e58139b1"] ;
161 -> 781 ;
782 [label="PP3 <= 0.4\ngini = 0.44\nsamples = 55\nvalue = [60, 30]\nclass = AMP", fillcolor="#e581397f"] ;
781 -> 782 ;
783 [label="PP3 <= 0.38\ngini = 0.42\nsamples = 52\nvalue = [58, 25]\nclass = AMP", fillcolor="#e5813991"] ;
782 -> 783 ;
784 [label="PP3 <= 0.38\ngini = 0.46\nsamples = 34\nvalue = [36, 20]\nclass = AMP", fillcolor="#e5813971"] ;
783 -> 784 ;
785 [label="PP3 <= 0.38\ngini = 0.36\nsamples = 18\nvalue = [23, 7]\nclass = AMP", fillcolor="#e58139b1"] ;
784 -> 785 ;
786 [label="PP3 <= 0.38\ngini = 0.42\nsamples = 14\nvalue = [16, 7]\nclass = AMP", fillcolor="#e581398f"] ;
785 -> 786 ;
787 [label="gini = 0.36\nsamples = 11\nvalue = [13, 4]\nclass = AMP", fillcolor="#e58139b1"] ;
786 -> 787 ;
788 [label="gini = 0.5\nsamples = 3\nvalue = [3, 3]\nclass = AMP", fillcolor="#e5813900"] ;
786 -> 788 ;
789 [label="gini = 0.0\nsamples = 4\nvalue = [7, 0]\nclass = AMP", fillcolor="#e58139ff"] ;
785 -> 789 ;
790 [label="PP3 <= 0.38\ngini = 0.5\nsamples = 16\nvalue = [13, 13]\nclass = AMP", fillcolor="#e5813900"] ;
784 -> 790 ;
791 [label="gini = 0.0\nsamples = 2\nvalue = [0, 6]\nclass = NAMP", fillcolor="#399de5ff"] ;
790 -> 791 ;
792 [label="PP3 <= 0.38\ngini = 0.45\nsamples = 14\nvalue = [13, 7]\nclass = AMP", fillcolor="#e5813976"] ;
790 -> 792 ;
793 [label="PP3 <= 0.38\ngini = 0.18\nsamples = 8\nvalue = [9, 1]\nclass = AMP", fillcolor="#e58139e3"] ;
792 -> 793 ;
794 [label="gini = 0.44\nsamples = 3\nvalue = [2, 1]\nclass = AMP", fillcolor="#e581397f"] ;
793 -> 794 ;
795 [label="gini = 0.0\nsamples = 5\nvalue = [7, 0]\nclass = AMP", fillcolor="#e58139ff"] ;
793 -> 795 ;
796 [label="PP3 <= 0.38\ngini = 0.48\nsamples = 6\nvalue = [4, 6]\nclass = NAMP", fillcolor="#399de555"] ;
792 -> 796 ;
797 [label="gini = 0.0\nsamples = 2\nvalue = [0, 2]\nclass = NAMP", fillcolor="#399de5ff"] ;
796 -> 797 ;
798 [label="gini = 0.5\nsamples = 4\nvalue = [4, 4]\nclass = AMP", fillcolor="#e5813900"] ;
796 -> 798 ;
799 [label="PP3 <= 0.4\ngini = 0.3\nsamples = 18\nvalue = [22, 5]\nclass = AMP", fillcolor="#e58139c5"] ;
783 -> 799 ;
800 [label="PP3 <= 0.39\ngini = 0.1\nsamples = 15\nvalue = [17, 1]\nclass = AMP", fillcolor="#e58139f0"] ;
799 -> 800 ;
801 [label="gini = 0.0\nsamples = 8\nvalue = [10, 0]\nclass = AMP", fillcolor="#e58139ff"] ;
800 -> 801 ;
802 [label="PP3 <= 0.39\ngini = 0.22\nsamples = 7\nvalue = [7, 1]\nclass = AMP", fillcolor="#e58139db"] ;
800 -> 802 ;
803 [label="gini = 0.0\nsamples = 1\nvalue = [0, 1]\nclass = NAMP", fillcolor="#399de5ff"] ;
802 -> 803 ;
804 [label="gini = 0.0\nsamples = 6\nvalue = [7, 0]\nclass = AMP", fillcolor="#e58139ff"] ;
802 -> 804 ;
805 [label="PP3 <= 0.4\ngini = 0.49\nsamples = 3\nvalue = [5, 4]\nclass = AMP", fillcolor="#e5813933"] ;
799 -> 805 ;
806 [label="gini = 0.0\nsamples = 1\nvalue = [0, 4]\nclass = NAMP", fillcolor="#399de5ff"] ;
805 -> 806 ;
807 [label="gini = 0.0\nsamples = 2\nvalue = [5, 0]\nclass = AMP", fillcolor="#e58139ff"] ;
805 -> 807 ;
808 [label="gini = 0.41\nsamples = 3\nvalue = [2, 5]\nclass = NAMP", fillcolor="#399de599"] ;
782 -> 808 ;
809 [label="PP3 <= 0.41\ngini = 0.31\nsamples = 117\nvalue = [162, 38]\nclass = AMP", fillcolor="#e58139c3"] ;
781 -> 809 ;
810 [label="gini = 0.0\nsamples = 19\nvalue = [31, 0]\nclass = AMP", fillcolor="#e58139ff"] ;
809 -> 810 ;
811 [label="PP3 <= 0.47\ngini = 0.35\nsamples = 98\nvalue = [131, 38]\nclass = AMP", fillcolor="#e58139b5"] ;
809 -> 811 ;
812 [label="PP3 <= 0.44\ngini = 0.41\nsamples = 54\nvalue = [66, 27]\nclass = AMP", fillcolor="#e5813997"] ;
811 -> 812 ;
813 [label="PP3 <= 0.43\ngini = 0.33\nsamples = 33\nvalue = [45, 12]\nclass = AMP", fillcolor="#e58139bb"] ;
812 -> 813 ;
814 [label="PP3 <= 0.43\ngini = 0.47\nsamples = 12\nvalue = [13, 8]\nclass = AMP", fillcolor="#e5813962"] ;
813 -> 814 ;
815 [label="PP3 <= 0.41\ngini = 0.23\nsamples = 10\nvalue = [13, 2]\nclass = AMP", fillcolor="#e58139d8"] ;
814 -> 815 ;
816 [label="gini = 0.0\nsamples = 1\nvalue = [0, 1]\nclass = NAMP", fillcolor="#399de5ff"] ;
815 -> 816 ;
817 [label="PP3 <= 0.41\ngini = 0.13\nsamples = 9\nvalue = [13, 1]\nclass = AMP", fillcolor="#e58139eb"] ;
815 -> 817 ;
818 [label="PP3 <= 0.41\ngini = 0.44\nsamples = 3\nvalue = [2, 1]\nclass = AMP", fillcolor="#e581397f"] ;
817 -> 818 ;
819 [label="gini = 0.0\nsamples = 2\nvalue = [2, 0]\nclass = AMP", fillcolor="#e58139ff"] ;
818 -> 819 ;
820 [label="gini = 0.0\nsamples = 1\nvalue = [0, 1]\nclass = NAMP", fillcolor="#399de5ff"] ;
818 -> 820 ;
821 [label="gini = 0.0\nsamples = 6\nvalue = [11, 0]\nclass = AMP", fillcolor="#e58139ff"] ;
817 -> 821 ;
822 [label="gini = 0.0\nsamples = 2\nvalue = [0, 6]\nclass = NAMP", fillcolor="#399de5ff"] ;
814 -> 822 ;
823 [label="PP3 <= 0.43\ngini = 0.2\nsamples = 21\nvalue = [32, 4]\nclass = AMP", fillcolor="#e58139df"] ;
813 -> 823 ;
824 [label="gini = 0.0\nsamples = 13\nvalue = [22, 0]\nclass = AMP", fillcolor="#e58139ff"] ;
823 -> 824 ;
825 [label="PP3 <= 0.43\ngini = 0.41\nsamples = 8\nvalue = [10, 4]\nclass = AMP", fillcolor="#e5813999"] ;
823 -> 825 ;
826 [label="gini = 0.0\nsamples = 1\nvalue = [0, 4]\nclass = NAMP", fillcolor="#399de5ff"] ;
825 -> 826 ;
827 [label="gini = 0.0\nsamples = 7\nvalue = [10, 0]\nclass = AMP", fillcolor="#e58139ff"] ;
825 -> 827 ;
828 [label="PP3 <= 0.45\ngini = 0.49\nsamples = 21\nvalue = [21, 15]\nclass = AMP", fillcolor="#e5813949"] ;
812 -> 828 ;
829 [label="gini = 0.0\nsamples = 3\nvalue = [0, 5]\nclass = NAMP", fillcolor="#399de5ff"] ;
828 -> 829 ;
830 [label="PP3 <= 0.46\ngini = 0.44\nsamples = 18\nvalue = [21, 10]\nclass = AMP", fillcolor="#e5813986"] ;
828 -> 830 ;
831 [label="PP3 <= 0.45\ngini = 0.32\nsamples = 9\nvalue = [12, 3]\nclass = AMP", fillcolor="#e58139bf"] ;
830 -> 831 ;
832 [label="PP3 <= 0.45\ngini = 0.5\nsamples = 4\nvalue = [3, 3]\nclass = AMP", fillcolor="#e5813900"] ;
831 -> 832 ;
833 [label="PP3 <= 0.45\ngini = 0.48\nsamples = 3\nvalue = [3, 2]\nclass = AMP", fillcolor="#e5813955"] ;
832 -> 833 ;
834 [label="gini = 0.5\nsamples = 2\nvalue = [2, 2]\nclass = AMP", fillcolor="#e5813900"] ;
833 -> 834 ;
835 [label="gini = 0.0\nsamples = 1\nvalue = [1, 0]\nclass = AMP", fillcolor="#e58139ff"] ;
833 -> 835 ;
836 [label="gini = 0.0\nsamples = 1\nvalue = [0, 1]\nclass = NAMP", fillcolor="#399de5ff"] ;
832 -> 836 ;
837 [label="gini = 0.0\nsamples = 5\nvalue = [9, 0]\nclass = AMP", fillcolor="#e58139ff"] ;
831 -> 837 ;
838 [label="PP3 <= 0.46\ngini = 0.49\nsamples = 9\nvalue = [9, 7]\nclass = AMP", fillcolor="#e5813939"] ;
830 -> 838 ;
839 [label="gini = 0.44\nsamples = 3\nvalue = [2, 4]\nclass = NAMP", fillcolor="#399de57f"] ;
838 -> 839 ;
840 [label="PP3 <= 0.47\ngini = 0.42\nsamples = 6\nvalue = [7, 3]\nclass = AMP", fillcolor="#e5813992"] ;
838 -> 840 ;
841 [label="gini = 0.0\nsamples = 2\nvalue = [3, 0]\nclass = AMP", fillcolor="#e58139ff"] ;
840 -> 841 ;
842 [label="gini = 0.49\nsamples = 4\nvalue = [4, 3]\nclass = AMP", fillcolor="#e5813940"] ;
840 -> 842 ;
843 [label="PP3 <= 0.53\ngini = 0.25\nsamples = 44\nvalue = [65, 11]\nclass = AMP", fillcolor="#e58139d4"] ;
811 -> 843 ;
844 [label="PP3 <= 0.5\ngini = 0.07\nsamples = 19\nvalue = [28, 1]\nclass = AMP", fillcolor="#e58139f6"] ;
843 -> 844 ;
845 [label="gini = 0.0\nsamples = 11\nvalue = [20, 0]\nclass = AMP", fillcolor="#e58139ff"] ;
844 -> 845 ;
846 [label="PP3 <= 0.5\ngini = 0.2\nsamples = 8\nvalue = [8, 1]\nclass = AMP", fillcolor="#e58139df"] ;
844 -> 846 ;
847 [label="gini = 0.0\nsamples = 1\nvalue = [0, 1]\nclass = NAMP", fillcolor="#399de5ff"] ;
846 -> 847 ;
848 [label="gini = 0.0\nsamples = 7\nvalue = [8, 0]\nclass = AMP", fillcolor="#e58139ff"] ;
846 -> 848 ;
849 [label="PP3 <= 0.54\ngini = 0.33\nsamples = 25\nvalue = [37, 10]\nclass = AMP", fillcolor="#e58139ba"] ;
843 -> 849 ;
850 [label="PP3 <= 0.54\ngini = 0.44\nsamples = 5\nvalue = [2, 4]\nclass = NAMP", fillcolor="#399de57f"] ;
849 -> 850 ;
851 [label="PP3 <= 0.53\ngini = 0.5\nsamples = 4\nvalue = [2, 2]\nclass = AMP", fillcolor="#e5813900"] ;
850 -> 851 ;
852 [label="gini = 0.44\nsamples = 3\nvalue = [1, 2]\nclass = NAMP", fillcolor="#399de57f"] ;
851 -> 852 ;
853 [label="gini = 0.0\nsamples = 1\nvalue = [1, 0]\nclass = AMP", fillcolor="#e58139ff"] ;
851 -> 853 ;
854 [label="gini = 0.0\nsamples = 1\nvalue = [0, 2]\nclass = NAMP", fillcolor="#399de5ff"] ;
850 -> 854 ;
855 [label="PP3 <= 0.56\ngini = 0.25\nsamples = 20\nvalue = [35, 6]\nclass = AMP", fillcolor="#e58139d3"] ;
849 -> 855 ;
856 [label="gini = 0.0\nsamples = 5\nvalue = [15, 0]\nclass = AMP", fillcolor="#e58139ff"] ;
855 -> 856 ;
857 [label="PP3 <= 0.56\ngini = 0.36\nsamples = 15\nvalue = [20, 6]\nclass = AMP", fillcolor="#e58139b3"] ;
855 -> 857 ;
858 [label="gini = 0.0\nsamples = 2\nvalue = [0, 5]\nclass = NAMP", fillcolor="#399de5ff"] ;
857 -> 858 ;
859 [label="PP3 <= 0.6\ngini = 0.09\nsamples = 13\nvalue = [20, 1]\nclass = AMP", fillcolor="#e58139f2"] ;
857 -> 859 ;
860 [label="PP3 <= 0.59\ngini = 0.17\nsamples = 8\nvalue = [10, 1]\nclass = AMP", fillcolor="#e58139e6"] ;
859 -> 860 ;
861 [label="gini = 0.0\nsamples = 6\nvalue = [9, 0]\nclass = AMP", fillcolor="#e58139ff"] ;
860 -> 861 ;
862 [label="gini = 0.5\nsamples = 2\nvalue = [1, 1]\nclass = AMP", fillcolor="#e5813900"] ;
860 -> 862 ;
863 [label="gini = 0.0\nsamples = 5\nvalue = [10, 0]\nclass = AMP", fillcolor="#e58139ff"] ;
859 -> 863 ;
864 [label="PP3 <= 0.78\ngini = 0.45\nsamples = 27\nvalue = [16, 30]\nclass = NAMP", fillcolor="#399de577"] ;
160 -> 864 ;
865 [label="PP3 <= 0.74\ngini = 0.4\nsamples = 18\nvalue = [9, 24]\nclass = NAMP", fillcolor="#399de59f"] ;
864 -> 865 ;
866 [label="PP3 <= 0.63\ngini = 0.44\nsamples = 14\nvalue = [9, 18]\nclass = NAMP", fillcolor="#399de57f"] ;
865 -> 866 ;
867 [label="gini = 0.49\nsamples = 3\nvalue = [4, 5]\nclass = NAMP", fillcolor="#399de533"] ;
866 -> 867 ;
868 [label="PP3 <= 0.73\ngini = 0.4\nsamples = 11\nvalue = [5, 13]\nclass = NAMP", fillcolor="#399de59d"] ;
866 -> 868 ;
869 [label="PP3 <= 0.66\ngini = 0.24\nsamples = 6\nvalue = [1, 6]\nclass = NAMP", fillcolor="#399de5d4"] ;
868 -> 869 ;
870 [label="PP3 <= 0.65\ngini = 0.44\nsamples = 3\nvalue = [1, 2]\nclass = NAMP", fillcolor="#399de57f"] ;
869 -> 870 ;
871 [label="gini = 0.0\nsamples = 2\nvalue = [0, 2]\nclass = NAMP", fillcolor="#399de5ff"] ;
870 -> 871 ;
872 [label="gini = 0.0\nsamples = 1\nvalue = [1, 0]\nclass = AMP", fillcolor="#e58139ff"] ;
870 -> 872 ;
873 [label="gini = 0.0\nsamples = 3\nvalue = [0, 4]\nclass = NAMP", fillcolor="#399de5ff"] ;
869 -> 873 ;
874 [label="gini = 0.46\nsamples = 5\nvalue = [4, 7]\nclass = NAMP", fillcolor="#399de56d"] ;
868 -> 874 ;
875 [label="gini = 0.0\nsamples = 4\nvalue = [0, 6]\nclass = NAMP", fillcolor="#399de5ff"] ;
865 -> 875 ;
